{"learner":{"attributes":{"scikit_learn":"{\"_estimator_type\": \"classifier\"}"},"feature_names":["CODE_GENDER","FLAG_OWN_CAR","FLAG_OWN_REALTY","AMT_INCOME_TOTAL","NAME_EDUCATION_TYPE","FLAG_WORK_PHONE","FLAG_PHONE","FLAG_EMAIL","AGE_YEARS","NOT_EMPLOYED_FLAG","EMPLOYED_YEARS","DEPENDENTS_RATIO","FAMILY_SIZE","NAME_INCOME_TYPE_Commercial associate","NAME_INCOME_TYPE_Pensioner","NAME_INCOME_TYPE_State servant","NAME_INCOME_TYPE_Student","NAME_INCOME_TYPE_Working","NAME_FAMILY_STATUS_Civil marriage","NAME_FAMILY_STATUS_Married","NAME_FAMILY_STATUS_Separated","NAME_FAMILY_STATUS_Single / not married","NAME_FAMILY_STATUS_Widow","OCCUPATION_TYPE_Accountants","OCCUPATION_TYPE_Cleaning staff","OCCUPATION_TYPE_Cooking staff","OCCUPATION_TYPE_Core staff","OCCUPATION_TYPE_Drivers","OCCUPATION_TYPE_HR staff","OCCUPATION_TYPE_High skill tech staff","OCCUPATION_TYPE_IT staff","OCCUPATION_TYPE_Laborers","OCCUPATION_TYPE_Low-skill Laborers","OCCUPATION_TYPE_Managers","OCCUPATION_TYPE_Medicine staff","OCCUPATION_TYPE_Private service staff","OCCUPATION_TYPE_Realty agents","OCCUPATION_TYPE_Sales staff","OCCUPATION_TYPE_Secretaries","OCCUPATION_TYPE_Security staff","OCCUPATION_TYPE_Unknown","OCCUPATION_TYPE_Waiters/barmen staff","NAME_HOUSING_TYPE_Co-op apartment","NAME_HOUSING_TYPE_House / apartment","NAME_HOUSING_TYPE_Municipal apartment","NAME_HOUSING_TYPE_Office apartment","NAME_HOUSING_TYPE_Rented apartment","NAME_HOUSING_TYPE_With parents"],"feature_types":["int","int","int","float","int","int","int","int","int","int","float","float","float","int","int","int","int","int","int","int","int","int","int","int","int","int","int","int","int","int","int","int","int","int","int","int","int","int","int","int","int","int","int","int","int","int","int","int"],"gradient_booster":{"model":{"cats":{"enc":[],"feature_segments":[],"sorted_idx":[]},"gbtree_model_param":{"num_parallel_tree":"1","num_trees":"200"},"iteration_indptr":[0,1,2,3,4,5,6,7,8,9,10,11,12,13,14,15,16,17,18,19,20,21,22,23,24,25,26,27,28,29,30,31,32,33,34,35,36,37,38,39,40,41,42,43,44,45,46,47,48,49,50,51,52,53,54,55,56,57,58,59,60,61,62,63,64,65,66,67,68,69,70,71,72,73,74,75,76,77,78,79,80,81,82,83,84,85,86,87,88,89,90,91,92,93,94,95,96,97,98,99,100,101,102,103,104,105,106,107,108,109,110,111,112,113,114,115,116,117,118,119,120,121,122,123,124,125,126,127,128,129,130,131,132,133,134,135,136,137,138,139,140,141,142,143,144,145,146,147,148,149,150,151,152,153,154,155,156,157,158,159,160,161,162,163,164,165,166,167,168,169,170,171,172,173,174,175,176,177,178,179,180,181,182,183,184,185,186,187,188,189,190,191,192,193,194,195,196,197,198,199,200],"tree_info":[0,0,0,0,0,0,0,0,0,0,0,0,0,0,0,0,0,0,0,0,0,0,0,0,0,0,0,0,0,0,0,0,0,0,0,0,0,0,0,0,0,0,0,0,0,0,0,0,0,0,0,0,0,0,0,0,0,0,0,0,0,0,0,0,0,0,0,0,0,0,0,0,0,0,0,0,0,0,0,0,0,0,0,0,0,0,0,0,0,0,0,0,0,0,0,0,0,0,0,0,0,0,0,0,0,0,0,0,0,0,0,0,0,0,0,0,0,0,0,0,0,0,0,0,0,0,0,0,0,0,0,0,0,0,0,0,0,0,0,0,0,0,0,0,0,0,0,0,0,0,0,0,0,0,0,0,0,0,0,0,0,0,0,0,0,0,0,0,0,0,0,0,0,0,0,0,0,0,0,0,0,0,0,0,0,0,0,0,0,0,0,0,0,0,0,0,0,0,0,0],"trees":[{"base_weights":[2.6247883E-2,-2.3942885E-1,1.85838E-1,-3.1297195E-1,6.724274E-1,2.1617214E-1,-2.3852156E-1,-2.3509859E-1,-6.855975E-1,8.4684956E-1,-4.842318E-3,-2.1152015E-1,2.7971238E-1,-5.8164585E-1,-1.08680025E-1,-2.756445E-1,-4.3839064E-1,4.5676692E-3,2.2534648E-1,-9.022928E-1,8.651154E-2,2.1660928E-1,2.3638187E-1,1.691456E-1,-1.0803746E0,4.1577364E-3,-4.9613777E-1,-1.9441424E-1,-2.1041285E-1,-2.7514014E-1,8.052736E-2,-5.2706886E-2,1.2656093E-1,1.6218135E-1,4.2542884E-1,8.319294E-1,-8.0923074E-1,-1.1734637E0,-3.0048672E-2,-1.8483312E-1,3.1113327E-1,-7.27578E-1,3.612795E-1,1.5041699E-1,-6.533956E-1,-2.3323135E-1,9.397536E-2,3.3808872E-1,-1.3695844E-1,1.8124549E-1,2.2277316E-1,2.1275114E-1,5.081013E-2,-2.556453E-2,-2.1329544E-1,-1.3739636E0,-5.713067E-1,6.334637E-2,-8.2565534E-1,-1.04112335E-1,1.7008662E-1,-1.0406928E0,6.0814835E-2,1.5207532E-1,-4.181398E-2,-9.055609E-1,-2.1647134E-1,-1.3522923E-2,-1.4433575E-1,-6.459872E-2,4.6512246E-1,1.7173384E-1,-5.523092E-1,3.352801E-1,-1.3353938E-1,-1.3111676E-1,-3.5771737E-1,7.424561E-3,-2.4146102E-1,3.9414234E-2,-1.5107396E-1,-2.5121984E-1,-7.893389E-2,7.590439E-2,-7.5916976E-2,-2.3386793E-1,-6.339189E-2,-2.4456255E-1,-5.097859E-2,4.5676692E-3,-7.216312E-2,6.2660895E-2,-7.8118116E-2,-8.051428E-2,1.4473057E-1,1.1174138E-1,-4.9393922E-2,5.7005342E-2,-1.3795377E-1,-1.9870585E-1,-4.1530836E-2,5.819691E-3,1.2743025E-1],"categories":[],"categories_nodes":[],"categories_segments":[],"categories_sizes":[],"default_left":[0,0,0,0,0,0,0,0,0,0,0,0,0,0,0,0,0,0,0,0,0,0,0,0,0,0,0,0,0,0,0,0,0,0,0,0,0,0,0,0,0,0,0,0,0,0,0,0,0,0,0,0,0,0,0,0,0,0,0,0,0,0,0,0,0,0,0,0,0,0,0,0,0,0,0,0,0,0,0,0,0,0,0,0,0,0,0,0,0,0,0,0,0,0,0,0,0,0,0,0,0,0,0],"id":0,"left_children":[1,3,5,7,9,11,-1,13,15,17,-1,19,21,23,25,-1,27,-1,-1,29,31,-1,33,35,37,39,41,-1,43,-1,-1,45,-1,47,49,51,53,55,-1,57,59,61,63,-1,65,67,-1,69,71,-1,73,-1,-1,-1,-1,75,77,79,81,83,-1,85,-1,-1,-1,87,89,91,-1,93,95,97,99,101,-1,-1,-1,-1,-1,-1,-1,-1,-1,-1,-1,-1,-1,-1,-1,-1,-1,-1,-1,-1,-1,-1,-1,-1,-1,-1,-1,-1,-1],"loss_changes":[9.438963E0,5.8157897E0,6.0693164E0,2.103066E0,8.171022E-1,3.7778502E0,0E0,2.8310375E0,1.6159372E0,1.1898787E0,0E0,3.8392012E0,3.906064E0,6.708622E0,2.1721148E0,0E0,1.1365178E0,0E0,0E0,4.0096617E0,1.0734183E0,0E0,1.5403557E0,5.7447023E0,7.421379E-1,2.345189E0,2.486029E0,0E0,4.3284774E0,0E0,0E0,1.2247888E0,0E0,4.466833E0,2.8890224E0,4.2042303E-1,5.06186E-1,3.6146545E-1,0E0,4.0336285E0,3.5369182E0,3.2733297E0,8.531084E-1,0E0,5.41944E-1,1.0048434E0,0E0,2.7508745E0,4.17455E0,0E0,2.5924175E0,0E0,0E0,0E0,0E0,7.372427E-1,1.6250536E0,2.2261684E0,8.1395817E-1,1.4218248E0,0E0,3.0424356E-1,0E0,0E0,0E0,5.001497E-1,1.3830245E-1,1.0515968E0,0E0,3.9233105E0,2.8405867E0,2.0526018E0,1.8927078E0,1.9830425E0,0E0,0E0,0E0,0E0,0E0,0E0,0E0,0E0,0E0,0E0,0E0,0E0,0E0,0E0,0E0,0E0,0E0,0E0,0E0,0E0,0E0,0E0,0E0,0E0,0E0,0E0,0E0,0E0,0E0],"parents":[2147483647,0,0,1,1,2,2,3,3,4,4,5,5,7,7,8,8,9,9,11,11,12,12,13,13,14,14,16,16,19,19,20,20,22,22,23,23,24,24,25,25,26,26,28,28,31,31,33,33,34,34,35,35,36,36,37,37,39,39,40,40,41,41,42,42,44,44,45,45,47,47,48,48,50,50,55,55,56,56,57,57,58,58,59,59,61,61,65,65,66,66,67,67,69,69,70,70,71,71,72,72,73,73],"right_children":[2,4,6,8,10,12,-1,14,16,18,-1,20,22,24,26,-1,28,-1,-1,30,32,-1,34,36,38,40,42,-1,44,-1,-1,46,-1,48,50,52,54,56,-1,58,60,62,64,-1,66,68,-1,70,72,-1,74,-1,-1,-1,-1,76,78,80,82,84,-1,86,-1,-1,-1,88,90,92,-1,94,96,98,100,102,-1,-1,-1,-1,-1,-1,-1,-1,-1,-1,-1,-1,-1,-1,-1,-1,-1,-1,-1,-1,-1,-1,-1,-1,-1,-1,-1,-1,-1],"split_conditions":[1E0,1E0,6.666667E-1,1E0,5E1,3.1E1,-2.3852156E-1,3.2E1,1E0,3.2E1,-4.842318E-3,2E0,3.3E1,1E0,5E-1,-2.756445E-1,5.5E1,4.5676692E-3,2.2534648E-1,1E0,1E0,2.1660928E-1,5.5E1,1E0,1E0,1E0,3E0,-1.9441424E-1,6E1,-2.7514014E-1,8.052736E-2,1E0,1.2656093E-1,4.7E1,1E0,1E0,3E0,3E0,-3.0048672E-2,5.2E1,4.3E1,1E0,1E0,1.5041699E-1,2E0,5E-1,9.397536E-2,3.6E1,1E0,1.8124549E-1,1E0,2.1275114E-1,5.081013E-2,-2.556453E-2,-2.1329544E-1,2E0,1E0,1E0,1E0,3.7E1,1.7008662E-1,4.1E1,6.0814835E-2,1.5207532E-1,-4.181398E-2,6.2E1,6.3E1,2.9E1,-1.4433575E-1,3E0,1E0,3E0,4.9E1,6.1E1,-1.3353938E-1,-1.3111676E-1,-3.5771737E-1,7.424561E-3,-2.4146102E-1,3.9414234E-2,-1.5107396E-1,-2.5121984E-1,-7.893389E-2,7.590439E-2,-7.5916976E-2,-2.3386793E-1,-6.339189E-2,-2.4456255E-1,-5.097859E-2,4.5676692E-3,-7.216312E-2,6.2660895E-2,-7.8118116E-2,-8.051428E-2,1.4473057E-1,1.1174138E-1,-4.9393922E-2,5.7005342E-2,-1.3795377E-1,-1.9870585E-1,-4.1530836E-2,5.819691E-3,1.2743025E-1],"split_indices":[2,15,11,14,8,8,0,8,43,8,0,12,8,5,11,0,8,0,0,1,40,0,8,31,31,1,4,0,8,0,0,31,0,8,9,0,12,4,0,8,8,5,5,0,12,11,0,8,1,0,20,0,0,0,0,4,33,33,43,8,0,8,0,0,0,8,8,8,0,4,15,12,8,8,0,0,0,0,0,0,0,0,0,0,0,0,0,0,0,0,0,0,0,0,0,0,0,0,0,0,0,0,0],"split_type":[0,0,0,0,0,0,0,0,0,0,0,0,0,0,0,0,0,0,0,0,0,0,0,0,0,0,0,0,0,0,0,0,0,0,0,0,0,0,0,0,0,0,0,0,0,0,0,0,0,0,0,0,0,0,0,0,0,0,0,0,0,0,0,0,0,0,0,0,0,0,0,0,0,0,0,0,0,0,0,0,0,0,0,0,0,0,0,0,0,0,0,0,0,0,0,0,0,0,0,0,0,0,0],"sum_hessian":[2.2057088E2,8.258601E1,1.3798486E2,7.703015E1,5.5558667E0,1.3583878E2,2.1460972E0,6.50637E1,1.1966452E1,4.270909E0,1.284958E0,1.7269312E1,1.1856946E2,1.6428314E1,4.8635384E1,1.9441487E0,1.0022303E1,1.3570824E0,2.9138262E0,4.593973E0,1.2675338E1,4.84012E0,1.1372934E2,6.8209023E0,9.607411E0,3.8432198E1,1.0203186E1,2.022914E0,7.999389E0,3.3312242E0,1.262749E0,1.0821169E1,1.8541691E0,8.300711E1,3.0722229E1,4.1555095E0,2.6653929E0,8.495552E0,1.1118594E0,2.4033657E1,1.439854E1,8.153708E0,2.0494769E0,2.3013406E0,5.6980486E0,8.454345E0,2.3668242E0,5.2188038E1,3.0819069E1,8.080221E0,2.2642008E1,2.3656807E0,1.7898289E0,1.1407092E0,1.5246837E0,5.4118376E0,3.0837145E0,1.7973843E1,6.059814E0,8.590809E0,5.8077307E0,6.248481E0,1.9052279E0,1.0097418E0,1.039735E0,2.9328249E0,2.7652235E0,6.540189E0,1.9141555E0,1.2633206E1,3.9554832E1,1.8015974E1,1.2803095E1,2.065573E1,1.98628E0,2.9250407E0,2.4867969E0,2.057261E0,1.0264535E0,1.6102962E1,1.8708808E0,2.0739727E0,3.9858413E0,2.9804535E0,5.610356E0,4.78264E0,1.4658407E0,1.3804349E0,1.55239E0,1.3570824E0,1.4081413E0,3.5940826E0,2.9461064E0,9.184516E0,3.4486904E0,3.515067E1,4.404163E0,1.65135E1,1.5024747E0,4.789281E0,8.013814E0,1.079896E1,9.856769E0],"tree_param":{"num_deleted":"0","num_feature":"48","num_nodes":"103","size_leaf_vector":"1"}},{"base_weights":[1.5984144E-2,-2.269783E-1,2.9184583E-1,-5.7497567E-1,-7.1076164E-4,3.4784913E-1,-8.314375E-1,-3.9930552E-1,-8.4737235E-1,-2.195718E-1,2.7456465E-1,4.930721E-1,4.0649164E-2,-2.1713646E-1,-3.34126E-2,-9.1403633E-1,-1.7022194E-1,-3.1376886E-1,-1.1625458E0,-3.8424864E-1,6.738532E-1,1.0869904E-1,9.3405706E-1,5.342655E-1,-8.996069E-2,-4.0065718E-1,2.1327378E-1,-2.4681775E-1,9.686384E-2,-3.504731E-1,1.0128929E-1,1.386889E-1,-2.4696484E-1,5.5527527E-2,-1.3460519E0,-6.0967994E-1,1.714228E-1,9.70957E-1,-1.2035515E-2,2.1029343E-1,-1.330817E-1,2.4079843E-1,-4.5130115E-2,4.125346E-1,6.93972E-1,-3.723309E-1,8.526138E-2,3.0590793E-1,-8.566073E-1,6.3471603E-1,-1.9382851E-1,-1.859439E-1,-1.6592854E-1,2.1139765E-1,-3.7062815E-1,6.357323E-1,-2.2849277E-1,-1.0377687E-1,-1.4571654E0,-7.109939E-1,2.1988782E-1,4.6103448E-1,-3.15344E-1,6.279572E-2,2.1689253E-1,-3.5505975E-3,2.9072854E-1,5.188611E-1,-2.3175968E-1,7.4505734E-1,1.191272E-1,4.8170615E-2,-1.9590834E-1,-1.3607173E-1,1.5650932E-1,-4.1989082E-1,-2.4800728E-1,2.5255466E-1,2.3497121E-1,-8.035066E-1,3.6940768E-1,-5.6360924E-1,9.3370706E-2,1.2208543E-1,-7.6164883E-1,1.8361709E-1,1.9144575E-1,-3.391276E-1,-6.623153E-1,-7.8310585E-1,6.635622E-2,-4.8938796E-2,1.00724496E-1,-6.3601315E-2,8.2573336E-1,5.784164E-2,-1.6653156E-1,-3.429279E-1,1.7476808E-1,8.538874E-2,-7.06828E-3,6.106188E-1,-7.9222366E-2,-1.4275613E-1,2.706796E-1,2.1860392E-1,6.453605E-1,1.6495211E-1,-1.4493158E-1,-1.2305377E-1,2.986023E-3,8.122226E-1,-2.3254164E-1,-1.070086E-1,-2.692224E-1,-1.2761249E-2,1.974135E-1,-1.7115186E-1,5.6331147E-2,2.6759948E-4,4.9087774E-2,1.19718604E-1,-1.06727295E-1,-1.8354148E-1,-3.2223046E-2,9.0778045E-2,-4.305737E-2,8.542578E-4,-2.1817759E-1,-4.8021168E-2,-1.86758E-1,2.0362969E-1,6.921091E-2,-1.04749456E-1,3.4907646E-3,5.9274346E-2,1.5719908E-1,5.329999E-2,-1.0227823E-1,1.7215404E-1,-9.055287E-2,-1.2436425E-1,1.5656878E-1,1.9263816E-1,5.607583E-2,-1.16982654E-1,5.70719E-2,5.9904434E-2,-8.426286E-2],"categories":[],"categories_nodes":[],"categories_segments":[],"categories_sizes":[],"default_left":[0,0,0,0,0,0,0,0,0,0,0,0,0,0,0,0,0,0,0,0,0,0,0,0,0,0,0,0,0,0,0,0,0,0,0,0,0,0,0,0,0,0,0,0,0,0,0,0,0,0,0,0,0,0,0,0,0,0,0,0,0,0,0,0,0,0,0,0,0,0,0,0,0,0,0,0,0,0,0,0,0,0,0,0,0,0,0,0,0,0,0,0,0,0,0,0,0,0,0,0,0,0,0,0,0,0,0,0,0,0,0,0,0,0,0,0,0,0,0,0,0,0,0,0,0,0,0,0,0,0,0,0,0,0,0,0,0,0,0,0,0,0,0,0,0,0,0,0,0],"id":1,"left_children":[1,3,5,7,9,11,13,15,17,19,21,23,25,-1,-1,27,29,31,33,35,37,39,41,43,45,47,49,-1,-1,51,53,55,-1,-1,57,59,61,63,-1,65,-1,-1,-1,67,69,71,-1,73,75,77,79,81,-1,-1,83,85,-1,-1,87,89,91,93,95,-1,-1,97,99,101,103,105,107,-1,-1,-1,-1,109,-1,111,-1,113,115,117,119,121,123,125,-1,-1,127,129,-1,-1,-1,-1,131,-1,-1,133,-1,-1,-1,135,137,-1,139,-1,141,-1,-1,-1,-1,143,-1,145,-1,147,-1,-1,-1,-1,-1,-1,-1,-1,-1,-1,-1,-1,-1,-1,-1,-1,-1,-1,-1,-1,-1,-1,-1,-1,-1,-1,-1,-1,-1,-1,-1,-1,-1],"loss_changes":[1.4807484E1,9.252046E0,6.7959957E0,1.8770647E0,4.4106183E0,4.406719E0,6.981485E-1,3.386282E0,2.5380268E0,6.258986E0,3.4455137E0,1.6640892E0,2.5948808E0,0E0,0E0,4.635523E0,1.1129181E0,3.4130182E0,3.143775E0,4.4977694E0,1.5218058E0,2.2666273E0,2.2704172E0,9.3831825E-1,9.307986E-1,3.357864E0,4.297507E0,0E0,0E0,9.0651584E-1,4.7032695E0,4.6205297E0,0E0,0E0,1.1408234E-1,2.27172E0,1.6823317E0,2.006054E-2,0E0,4.2527294E-1,0E0,0E0,0E0,2.737893E0,6.682873E-1,1.7094061E0,0E0,2.6505783E0,5.013962E-1,2.219327E0,4.809737E0,1.2451621E0,0E0,0E0,1.4685849E0,5.580554E-1,0E0,0E0,3.5423088E-1,1.9642239E0,5.8500516E-1,2.3200557E0,1.6984252E0,0E0,0E0,2.6012287E0,8.116807E-1,1.8652372E0,1.6714715E0,1.0932636E-1,2.5591145E0,0E0,0E0,0E0,0E0,3.8006037E-1,0E0,7.607481E0,0E0,2.3600135E0,1.7868229E0,1.4630185E0,1.0262869E-1,1.575831E0,2.3816419E-1,4.5731658E-1,0E0,0E0,9.8728263E-1,1.5347519E0,0E0,0E0,0E0,0E0,1.2858868E-1,0E0,0E0,4.1913497E-1,0E0,0E0,0E0,1.3552608E0,9.2648613E-1,0E0,1.9750814E0,0E0,4.0924597E0,0E0,0E0,0E0,0E0,2.6123142E-1,0E0,9.1468537E-1,0E0,8.445631E-1,0E0,0E0,0E0,0E0,0E0,0E0,0E0,0E0,0E0,0E0,0E0,0E0,0E0,0E0,0E0,0E0,0E0,0E0,0E0,0E0,0E0,0E0,0E0,0E0,0E0,0E0,0E0,0E0,0E0,0E0,0E0,0E0,0E0],"parents":[2147483647,0,0,1,1,2,2,3,3,4,4,5,5,6,6,7,7,8,8,9,9,10,10,11,11,12,12,15,15,16,16,17,17,18,18,19,19,20,20,21,21,22,22,23,23,24,24,25,25,26,26,29,29,30,30,31,31,34,34,35,35,36,36,37,37,39,39,43,43,44,44,45,45,47,47,48,48,49,49,50,50,51,51,54,54,55,55,58,58,59,59,60,60,61,61,62,62,65,65,66,66,67,67,68,68,69,69,70,70,75,75,77,77,79,79,80,80,81,81,82,82,83,83,84,84,85,85,88,88,89,89,94,94,97,97,101,101,102,102,104,104,106,106,111,111,113,113,115,115],"right_children":[2,4,6,8,10,12,14,16,18,20,22,24,26,-1,-1,28,30,32,34,36,38,40,42,44,46,48,50,-1,-1,52,54,56,-1,-1,58,60,62,64,-1,66,-1,-1,-1,68,70,72,-1,74,76,78,80,82,-1,-1,84,86,-1,-1,88,90,92,94,96,-1,-1,98,100,102,104,106,108,-1,-1,-1,-1,110,-1,112,-1,114,116,118,120,122,124,126,-1,-1,128,130,-1,-1,-1,-1,132,-1,-1,134,-1,-1,-1,136,138,-1,140,-1,142,-1,-1,-1,-1,144,-1,146,-1,148,-1,-1,-1,-1,-1,-1,-1,-1,-1,-1,-1,-1,-1,-1,-1,-1,-1,-1,-1,-1,-1,-1,-1,-1,-1,-1,-1,-1,-1,-1,-1,-1,-1],"split_conditions":[4.789041E0,1E0,6E-1,1E0,1E0,3E0,9.59726E0,1E0,1E0,3.9561644E0,4.630137E-1,1E0,6.4931507E0,-2.1713646E-1,-3.34126E-2,3E0,7.9452056E-1,1E0,1E0,3E0,4.5863013E0,1E0,4.208219E0,1.0939726E1,9.276712E0,5.758904E0,1.0183561E1,-2.4681775E-1,9.686384E-2,1E0,2.30137E0,4.4657536E0,-2.4696484E-1,5.5527527E-2,1.1780822E0,1E0,1E0,1E0,-1.2035515E-2,2E0,-1.330817E-1,2.4079843E-1,-4.5130115E-2,9.79178E0,3.0117807E1,8.219178E0,8.526138E-2,1E0,1E0,8.479452E0,1.2383562E1,2E0,-1.6592854E-1,2.1139765E-1,3.3333334E-1,1.9753425E0,-2.2849277E-1,-1.0377687E-1,2.550685E0,1E0,1.5808219E0,1.0328767E0,1E0,6.279572E-2,2.1689253E-1,1E0,1E0,1E0,1.0183561E1,1.2073973E1,1E0,4.8170615E-2,-1.9590834E-1,-1.3607173E-1,1.5650932E-1,6.120548E0,-2.4800728E-1,8.219178E0,2.3497121E-1,1.17260275E1,1E0,1E0,1E0,4.208219E0,5E-1,1.1534246E0,1.9144575E-1,-3.391276E-1,4.3041096E0,1.3753425E0,6.635622E-2,-4.8938796E-2,1.00724496E-1,-6.3601315E-2,5E-1,5.784164E-2,-1.6653156E-1,1E0,1.7476808E-1,8.538874E-2,-7.06828E-3,1E0,1E0,-1.4275613E-1,1.0676712E1,2.1860392E-1,1.2383562E1,1.6495211E-1,-1.4493158E-1,-1.2305377E-1,2.986023E-3,5E-1,-2.3254164E-1,1.0427398E1,-2.692224E-1,5E-1,1.974135E-1,-1.7115186E-1,5.6331147E-2,2.6759948E-4,4.9087774E-2,1.19718604E-1,-1.06727295E-1,-1.8354148E-1,-3.2223046E-2,9.0778045E-2,-4.305737E-2,8.542578E-4,-2.1817759E-1,-4.8021168E-2,-1.86758E-1,2.0362969E-1,6.921091E-2,-1.04749456E-1,3.4907646E-3,5.9274346E-2,1.5719908E-1,5.329999E-2,-1.0227823E-1,1.7215404E-1,-9.055287E-2,-1.2436425E-1,1.5656878E-1,1.9263816E-1,5.607583E-2,-1.16982654E-1,5.70719E-2,5.9904434E-2,-8.426286E-2],"split_indices":[10,2,11,5,40,12,10,43,6,10,10,27,10,0,0,12,10,47,43,12,10,20,10,10,10,10,10,0,0,17,10,10,0,0,10,26,6,19,0,12,0,0,0,10,10,10,0,43,40,10,10,12,0,0,11,10,0,0,10,20,10,10,5,0,0,6,6,26,10,10,40,0,0,0,0,10,0,10,0,10,0,21,6,10,11,10,0,0,10,10,0,0,0,0,11,0,0,21,0,0,0,2,6,0,10,0,10,0,0,0,0,11,0,10,0,11,0,0,0,0,0,0,0,0,0,0,0,0,0,0,0,0,0,0,0,0,0,0,0,0,0,0,0,0,0,0,0,0,0],"split_type":[0,0,0,0,0,0,0,0,0,0,0,0,0,0,0,0,0,0,0,0,0,0,0,0,0,0,0,0,0,0,0,0,0,0,0,0,0,0,0,0,0,0,0,0,0,0,0,0,0,0,0,0,0,0,0,0,0,0,0,0,0,0,0,0,0,0,0,0,0,0,0,0,0,0,0,0,0,0,0,0,0,0,0,0,0,0,0,0,0,0,0,0,0,0,0,0,0,0,0,0,0,0,0,0,0,0,0,0,0,0,0,0,0,0,0,0,0,0,0,0,0,0,0,0,0,0,0,0,0,0,0,0,0,0,0,0,0,0,0,0,0,0,0,0,0,0,0,0,0],"sum_hessian":[2.1893964E2,1.16505646E2,1.0243398E2,4.529745E1,7.120819E1,9.822703E1,4.2069545E0,2.903714E1,1.6260313E1,3.978166E1,3.1426533E1,6.628636E1,3.194067E1,2.5839713E0,1.6229833E0,8.022134E0,2.1015005E1,6.778885E0,9.481429E0,3.407149E1,5.7101703E0,2.604173E1,5.3848023E0,6.199017E1,4.296192E0,8.609622E0,2.3331049E1,6.623609E0,1.3985251E0,1.2455326E1,8.559678E0,5.1154184E0,1.6634663E0,1.0135983E0,8.467831E0,2.4169094E1,9.902396E0,3.83511E0,1.8750602E0,2.3664347E1,2.377384E0,4.3371058E0,1.0476962E0,3.7210663E1,2.4779505E1,2.9574378E0,1.3387547E0,3.505847E0,5.103775E0,1.1188909E1,1.2142139E1,1.0305017E1,2.150309E0,2.419691E0,6.1399875E0,4.0485144E0,1.066904E0,1.6742183E0,6.7936125E0,2.166599E1,2.5031023E0,6.241659E0,3.6607366E0,1.1198038E0,2.7153063E0,6.729424E0,1.6934923E1,3.2106827E1,5.1038375E0,2.248519E1,2.2943158E0,1.7716773E0,1.1857604E0,1.0030057E0,2.5028412E0,3.3655677E0,1.7382071E0,7.4121885E0,3.7767198E0,5.625835E0,6.516305E0,3.9484417E0,6.3565755E0,3.021041E0,3.1189466E0,2.3354049E0,1.7131096E0,4.3540273E0,2.4395852E0,2.0497524E1,1.1684667E0,1.0012575E0,1.5018446E0,2.0310724E0,4.210587E0,1.8913623E0,1.7693741E0,5.291722E0,1.4377025E0,1.1726736E1,5.208187E0,2.7818033E1,4.288792E0,2.3901699E0,2.7136679E0,2.7886813E0,1.9696508E1,1.2617211E0,1.0325947E0,2.0358198E0,1.3297479E0,5.617025E0,1.7951638E0,2.9878235E0,2.6380115E0,4.6305513E0,1.8857536E0,2.9250405E0,1.0234011E0,4.5884266E0,1.7681489E0,1.8000693E0,1.2209716E0,2.0564032E0,1.0625435E0,1.309991E0,1.0254139E0,1.3421249E0,1.0974602E0,5.015888E0,1.5481637E1,2.2039478E0,2.006639E0,3.2218604E0,2.0698612E0,1.0927534E1,1.68905E1,2.595673E0,1.6931189E0,1.390036E0,1.3236318E0,1.5830134E0,1.8113495E1,3.7433903E0,1.8736346E0,1.1258327E0,1.8619907E0,2.775743E0,1.8548083E0],"tree_param":{"num_deleted":"0","num_feature":"48","num_nodes":"149","size_leaf_vector":"1"}},{"base_weights":[1.2356135E-2,-1.4769498E-1,2.9925063E-1,-9.932724E-2,-7.0267844E-1,2.0637745E-1,7.3700047E-1,-4.690066E-1,4.3814318E-4,-8.5787755E-1,6.754209E-2,8.330905E-2,5.477175E-1,8.7851167E-1,-1.7371086E-2,-8.101544E-1,3.360301E-1,4.9746335E-2,-7.7565056E-1,-2.6001045E-1,-4.83599E-1,2.3240733E-1,-4.932938E-1,8.8442683E-1,3.9956036E-1,4.4282576E-1,2.1670209E-1,-3.587444E-1,-2.1064372E-1,-1.5770493E-1,1.8120094E-1,-1.2070106E-3,4.5211315E-1,4.537371E-4,-2.2822674E-1,8.3420634E-2,-7.5914454E-1,4.000552E-1,-3.675818E-1,-8.494693E-1,-3.584772E-2,2.0377901E-1,4.2992216E-2,1.6240372E-1,1.75487E-1,7.856373E-1,-4.05329E-2,5.717408E-1,-8.9703596E-1,9.3324795E-2,-4.7628057E-1,6.345482E-2,-6.1876416E-1,-3.674387E-1,8.7232375E-1,-1.9219463E-1,-3.4342027E-1,-2.379428E-1,5.155405E-1,1.9295494E-1,-8.563995E-1,-3.0595574E-1,-2.2964811E-1,6.197864E-1,-2.2984695E-1,5.36894E-1,-2.7902886E-1,1.820722E-1,4.5433205E-2,-3.4783028E-2,1.8561442E-1,-2.3751083E-1,-2.6823267E-1,1.6941056E-2,-1.5845898E-1,2.8701445E-1,-5.7995934E-2,-7.3908466E-1,-2.0230575E-2,8.418651E-2,-8.530155E-1,2.3097531E-1,2.7125293E-1,-4.2483434E-3,-1.0217001E-1,-1.4434816E-1,1.1786294E-1,2.284563E-1,3.6177146E-1,-2.6483414E-1,1.2677574E-1,-1.3167141E-1,2.252058E-2,-2.3638442E-2,1.908898E-1,1.2216901E-1,1.8828897E-1,-5.042659E-1,6.0439657E-2,5.0497066E-2,-1.2868081E-1,-1.0891031E-2,1.458603E-1,2.0856091E-3,-1.2331028E-1,-1.8638384E-1,4.1119047E-3,-2.292536E-1,-3.2073822E-2,-4.416142E-2,1.1035689E-1,1.2826878E-1,-1.442656E-1,-2.347503E-2,1.4261065E-1,5.5586886E-2,-1.323347E-2,1.1462974E-1,-9.754115E-2,-1.325992E-2,-1.3420896E-1],"categories":[],"categories_nodes":[],"categories_segments":[],"categories_sizes":[],"default_left":[0,0,0,0,0,0,0,0,0,0,0,0,0,0,0,0,0,0,0,0,0,0,0,0,0,0,0,0,0,0,0,0,0,0,0,0,0,0,0,0,0,0,0,0,0,0,0,0,0,0,0,0,0,0,0,0,0,0,0,0,0,0,0,0,0,0,0,0,0,0,0,0,0,0,0,0,0,0,0,0,0,0,0,0,0,0,0,0,0,0,0,0,0,0,0,0,0,0,0,0,0,0,0,0,0,0,0,0,0,0,0,0,0,0,0,0,0,0,0,0,0],"id":2,"left_children":[1,3,5,7,9,11,13,15,17,19,-1,21,23,25,-1,27,29,31,33,-1,35,37,39,41,43,45,-1,47,-1,49,-1,51,53,-1,-1,-1,55,57,59,61,63,-1,-1,65,-1,67,-1,69,71,-1,73,75,77,79,81,-1,83,85,87,-1,89,91,-1,93,-1,95,97,-1,-1,-1,-1,-1,99,-1,-1,101,103,105,-1,-1,107,-1,109,-1,-1,-1,111,-1,113,-1,115,-1,-1,-1,-1,117,-1,119,-1,-1,-1,-1,-1,-1,-1,-1,-1,-1,-1,-1,-1,-1,-1,-1,-1,-1,-1,-1,-1,-1,-1],"loss_changes":[1.0042193E1,3.6999412E0,3.0312843E0,4.8073587E0,2.0809302E0,2.726321E0,1.628747E0,7.8798985E0,4.00466E0,1.0156364E0,0E0,4.3855786E0,5.0998974E-1,5.4321E-1,0E0,1.7890778E0,2.662021E0,2.017712E0,1.7800319E0,0E0,2.0473177E0,4.1858225E0,1.6847274E0,1.8286085E-1,1.4263027E0,1.3444257E0,0E0,4.7345943E0,0E0,1.3456799E0,0E0,3.5663886E0,4.129978E0,0E0,0E0,0E0,1.4777017E-1,2.470233E0,6.876712E0,6.0264254E-1,4.838407E0,0E0,0E0,1.8820382E0,0E0,5.1148653E-2,0E0,1.1444398E0,7.280178E-1,0E0,8.178636E-1,2.212186E0,4.5242262E-1,2.0636976E0,9.7895956E-1,0E0,1.734769E-1,1.0434687E0,2.217195E0,0E0,3.5372696E0,5.825753E-1,0E0,1.1518694E0,0E0,8.935108E-1,8.6815095E-1,0E0,0E0,0E0,0E0,0E0,7.684913E-1,0E0,0E0,4.364148E0,2.0407746E0,1.0020366E0,0E0,0E0,4.4301414E-1,0E0,6.3810015E-1,0E0,0E0,0E0,2.2496119E0,0E0,4.0189943E0,0E0,1.1389312E-1,0E0,0E0,0E0,0E0,1.4119667E0,0E0,2.7070415E-1,0E0,0E0,0E0,0E0,0E0,0E0,0E0,0E0,0E0,0E0,0E0,0E0,0E0,0E0,0E0,0E0,0E0,0E0,0E0,0E0,0E0,0E0,0E0],"parents":[2147483647,0,0,1,1,2,2,3,3,4,4,5,5,6,6,7,7,8,8,9,9,11,11,12,12,13,13,15,15,16,16,17,17,18,18,20,20,21,21,22,22,23,23,24,24,25,25,27,27,29,29,31,31,32,32,36,36,37,37,38,38,39,39,40,40,43,43,45,45,47,47,48,48,50,50,51,51,52,52,53,53,54,54,56,56,57,57,58,58,60,60,61,61,63,63,65,65,66,66,72,72,75,75,76,76,77,77,80,80,82,82,86,86,88,88,90,90,95,95,97,97],"right_children":[2,4,6,8,10,12,14,16,18,20,-1,22,24,26,-1,28,30,32,34,-1,36,38,40,42,44,46,-1,48,-1,50,-1,52,54,-1,-1,-1,56,58,60,62,64,-1,-1,66,-1,68,-1,70,72,-1,74,76,78,80,82,-1,84,86,88,-1,90,92,-1,94,-1,96,98,-1,-1,-1,-1,-1,100,-1,-1,102,104,106,-1,-1,108,-1,110,-1,-1,-1,112,-1,114,-1,116,-1,-1,-1,-1,118,-1,120,-1,-1,-1,-1,-1,-1,-1,-1,-1,-1,-1,-1,-1,-1,-1,-1,-1,-1,-1,-1,-1,-1,-1],"split_conditions":[6.4931507E0,1E0,5.2E1,3.1E1,2E0,1.3736986E1,3.0117807E1,3.819178E0,6.052055E0,5.5E1,6.754209E-2,1.17260275E1,1.5545205E1,1.0183561E1,-1.7371086E-2,1E0,1E0,4.9589043E0,4E1,-2.6001045E-1,6E1,4.7E1,1.2383562E1,1E0,2.3145205E1,9.019178E0,2.1670209E-1,2.1780822E0,-2.1064372E-1,2.8E1,1.8120094E-1,4.4657536E0,3.5E1,4.537371E-4,-2.2822674E-1,8.3420634E-2,6.2E1,1E0,8.158904E0,4.2E1,1.3372602E1,2.0377901E-1,4.2992216E-2,4.4E1,1.75487E-1,1E0,-4.05329E-2,6.054795E-1,2.6520548E0,9.3324795E-2,5.279452E0,4.4E1,4.789041E0,5.758904E0,1E0,-1.9219463E-1,6.5E1,7.1671233E0,7.1671233E0,1.9295494E-1,9.276712E0,3.4E1,-2.2964811E-1,3.7E1,-2.2984695E-1,1.8775343E1,1E0,1.820722E-1,4.5433205E-2,-3.4783028E-2,1.8561442E-1,-2.3751083E-1,2.9E1,1.6941056E-2,-1.5845898E-1,3E0,3E0,3E0,-2.0230575E-2,8.418651E-2,5.8465753E0,2.3097531E-1,5.279452E0,-4.2483434E-3,-1.0217001E-1,-1.4434816E-1,9.684932E0,2.284563E-1,8.479452E0,-2.6483414E-1,1.0049315E1,-1.3167141E-1,2.252058E-2,-2.3638442E-2,1.908898E-1,1E0,1.8828897E-1,1.9449314E1,6.0439657E-2,5.0497066E-2,-1.2868081E-1,-1.0891031E-2,1.458603E-1,2.0856091E-3,-1.2331028E-1,-1.8638384E-1,4.1119047E-3,-2.292536E-1,-3.2073822E-2,-4.416142E-2,1.1035689E-1,1.2826878E-1,-1.442656E-1,-2.347503E-2,1.4261065E-1,5.5586886E-2,-1.323347E-2,1.1462974E-1,-9.754115E-2,-1.325992E-2,-1.3420896E-1],"split_indices":[10,22,8,8,4,10,10,10,10,8,0,10,10,10,0,0,0,10,8,0,8,8,10,13,10,10,0,10,0,8,0,10,8,0,0,0,8,43,10,8,10,0,0,8,0,0,0,10,10,0,10,8,10,10,6,0,8,10,10,0,10,8,0,8,0,10,1,0,0,0,0,0,8,0,0,12,12,12,0,0,10,0,10,0,0,0,10,0,10,0,10,0,0,0,0,6,0,10,0,0,0,0,0,0,0,0,0,0,0,0,0,0,0,0,0,0,0,0,0,0,0],"split_type":[0,0,0,0,0,0,0,0,0,0,0,0,0,0,0,0,0,0,0,0,0,0,0,0,0,0,0,0,0,0,0,0,0,0,0,0,0,0,0,0,0,0,0,0,0,0,0,0,0,0,0,0,0,0,0,0,0,0,0,0,0,0,0,0,0,0,0,0,0,0,0,0,0,0,0,0,0,0,0,0,0,0,0,0,0,0,0,0,0,0,0,0,0,0,0,0,0,0,0,0,0,0,0,0,0,0,0,0,0,0,0,0,0,0,0,0,0,0,0,0,0],"sum_hessian":[2.1673691E2,1.3943492E2,7.730199E1,1.2934155E2,1.0093361E1,6.4985985E1,1.2316004E1,2.670084E1,1.0264072E2,8.935797E0,1.1575636E0,4.867906E1,1.630692E1,1.0454009E1,1.8619949E0,1.8749197E1,7.951644E0,9.738908E1,5.251638E0,2.962452E0,5.9733453E0,3.9152042E1,9.52702E0,3.4642885E0,1.284263E1,4.356096E0,6.0979133E0,7.428738E0,1.1320457E1,4.6483593E0,3.3032846E0,8.7327446E1,1.006163E1,1.996322E0,3.255316E0,1.2789575E0,4.6943874E0,3.0861897E1,8.290145E0,4.8745937E0,4.6524262E0,2.450193E0,1.0140954E0,9.478531E0,3.3641002E0,2.7032938E0,1.6528018E0,2.6997824E0,4.7289557E0,1.4135107E0,3.2348485E0,7.986262E1,7.464833E0,3.4528997E0,6.6087303E0,2.2772498E0,2.4171379E0,4.5676355E0,2.6294262E1,1.9637946E0,6.32635E0,2.4470527E0,2.427541E0,3.2071702E0,1.4452561E0,5.0110993E0,4.467431E0,1.694717E0,1.0085769E0,1.0385176E0,1.6612649E0,2.6267548E0,2.1022012E0,1.429381E0,1.8054675E0,2.7633404E1,5.2229214E1,5.7097144E0,1.7551184E0,1.366847E0,2.0860527E0,3.868739E0,2.7399912E0,1.2119329E0,1.2052048E0,1.4998217E0,3.0678139E0,3.9137604E0,2.23805E1,4.0517793E0,2.2745707E0,1.0174805E0,1.4295723E0,1.2024435E0,2.0047266E0,3.1173434E0,1.8937562E0,3.3151548E0,1.1522763E0,1.0172815E0,1.0849198E0,1.608883E1,1.1544573E1,4.740353E1,4.8256817E0,4.372881E0,1.3368331E0,1.005453E0,1.0805995E0,1.0722075E0,1.6677839E0,2.03448E0,1.0333338E0,9.748907E0,1.2631595E1,1.0283915E0,1.2461791E0,1.8267494E0,1.290594E0,1.299682E0,2.015473E0],"tree_param":{"num_deleted":"0","num_feature":"48","num_nodes":"121","size_leaf_vector":"1"}},{"base_weights":[1.1597965E-2,-1.23151414E-1,2.5940046E-1,-3.7883198E-1,-5.9319492E-2,1.7747055E-1,6.5740573E-1,-6.529374E-1,2.9347393E-1,-1.4595824E-1,2.4192908E-1,6.683347E-2,4.9020746E-1,7.9187036E-1,-1.5043214E-2,-7.2642493E-1,3.283229E-2,7.0160276E-1,-3.5769883E-1,-9.423997E-2,-8.7356156E-1,7.775807E-1,4.7690187E-2,5.0465155E-1,-9.5320664E-2,8.088271E-1,3.5369676E-1,9.741255E-1,8.667355E-2,-3.1015092E-1,-8.5218275E-1,-3.18486E-2,1.8611187E-1,-1.3570632E-1,5.5045217E-2,-5.0210583E-1,-3.6875125E-2,-6.0097195E-2,-1.999993E-1,2.2938041E-1,2.1544957E-1,-1.6843256E-1,6.6177636E-1,7.468862E-1,-4.626328E-1,9.787993E-2,-6.685755E-1,4.7359426E-2,1.8677895E-1,1.4552578E-1,1.5828013E-1,2.2906025E-1,3.7873554E-1,-3.038741E-2,5.635881E-2,-7.0188284E-1,1.5775132E-1,-4.6776828E-1,-1.0071249E0,2.7567307E-2,-2.089372E-1,-2.0347233E-3,-6.024851E-1,8.539616E-2,-1.907018E-2,-3.0707496E-1,1.5724707E-1,1.7445447E-1,-4.396852E-3,-4.3894895E-3,9.1621405E-1,-1.2861352E-1,-1.9611476E-2,3.3593553E-1,-3.259004E-1,-7.742754E-2,-9.171743E-1,4.8226005E-1,-2.3480769E-1,1.5216765E-1,-4.4296537E-2,-1.7666128E-1,-1.13115525E-2,8.303573E-2,-7.8519636E-1,-2.3823877E-1,4.4391337E-3,-3.0065736E-1,1.6207705E-1,2.4066487E-1,-1.0459964E-1,1.5890209E-2,-1.9583115E-1,-7.0732504E-1,-8.071995E-2,2.323211E-1,3.3646837E-1,5.367383E-1,-1.7748241E-1,2.4861439E-1,-7.5467205E-1,1.20618835E-1,-1.8980771E-1,-2.4640475E-1,1.5585196E-2,1.0464873E-1,1.7343724E-1,-4.070179E-1,5.0622936E-2,-2.7093459E-2,-2.1722321E-1,-1.182804E-1,7.079127E-2,-1.27631E-1,8.7070994E-2,-3.5899267E-2,1.19816296E-1,-3.8385447E-3,-2.3423147E-1,1.0362505E-1,-9.848203E-2,-1.247501E-2,1.4798167E-1,1.7444697E-1,5.2813194E-3,-1.5921453E-1,5.341913E-2,-6.899671E-2,1.7610617E-1,-1.8216215E-1,-5.8971882E-2,1.0329806E-1,-8.469011E-2,4.303225E-2,-1.3001254E-1],"categories":[],"categories_nodes":[],"categories_segments":[],"categories_sizes":[],"default_left":[0,0,0,0,0,0,0,0,0,0,0,0,0,0,0,0,0,0,0,0,0,0,0,0,0,0,0,0,0,0,0,0,0,0,0,0,0,0,0,0,0,0,0,0,0,0,0,0,0,0,0,0,0,0,0,0,0,0,0,0,0,0,0,0,0,0,0,0,0,0,0,0,0,0,0,0,0,0,0,0,0,0,0,0,0,0,0,0,0,0,0,0,0,0,0,0,0,0,0,0,0,0,0,0,0,0,0,0,0,0,0,0,0,0,0,0,0,0,0,0,0,0,0,0,0,0,0,0,0,0,0,0,0,0,0],"id":3,"left_children":[1,3,5,7,9,11,13,15,17,19,21,23,25,27,-1,29,-1,31,33,35,37,39,41,43,45,47,49,51,53,55,57,-1,-1,-1,-1,59,61,-1,-1,63,-1,65,67,69,71,73,75,-1,-1,77,-1,-1,79,-1,-1,81,-1,83,85,87,-1,89,91,-1,-1,93,-1,-1,-1,-1,95,-1,-1,97,99,101,103,105,107,-1,-1,-1,-1,-1,109,-1,-1,111,-1,113,115,-1,-1,117,119,-1,121,123,125,127,129,-1,-1,-1,-1,131,-1,133,-1,-1,-1,-1,-1,-1,-1,-1,-1,-1,-1,-1,-1,-1,-1,-1,-1,-1,-1,-1,-1,-1,-1,-1,-1,-1,-1],"loss_changes":[7.2262487E0,2.2663515E0,2.368536E0,5.320515E0,2.9952855E0,2.201473E0,1.3048115E0,1.3250446E0,2.5765657E0,3.2555757E0,2.6376464E0,3.5166082E0,4.410019E-1,1.2994208E0,0E0,7.098341E-1,0E0,1.2749622E0,1.0058653E0,1.9453636E0,1.1727476E-1,8.6604166E-1,2.7567475E0,3.47667E0,4.107162E0,8.1964016E-2,1.1130626E0,4.282627E-1,1.9687E-1,3.088931E0,3.4601593E-1,0E0,0E0,0E0,0E0,2.9804296E0,1.4701513E0,0E0,0E0,2.7591178E-1,0E0,2.2982762E0,7.9517436E-1,1.4611821E0,1.5361613E-1,2.9510148E0,1.2995982E0,0E0,0E0,1.440106E0,0E0,0E0,9.443419E-1,0E0,0E0,5.2031875E-1,0E0,1.9538985E0,1.7146702E0,1.8293128E0,0E0,1.8009303E0,1.1897708E0,0E0,0E0,1.237429E0,0E0,0E0,0E0,0E0,9.0303993E-1,0E0,0E0,2.005392E0,2.8083372E0,2.8579018E0,2.1241317E0,7.55581E-1,5.683344E-1,0E0,0E0,0E0,0E0,0E0,7.5580287E-1,0E0,0E0,1.175725E0,0E0,3.9554782E0,2.7871122E0,0E0,0E0,1.5838764E0,2.7835767E0,0E0,7.0789987E-1,2.2998655E0,1.8518525E0,2.2913983E0,1.866107E-1,0E0,0E0,0E0,0E0,1.1053128E0,0E0,8.168005E-1,0E0,0E0,0E0,0E0,0E0,0E0,0E0,0E0,0E0,0E0,0E0,0E0,0E0,0E0,0E0,0E0,0E0,0E0,0E0,0E0,0E0,0E0,0E0,0E0,0E0,0E0,0E0],"parents":[2147483647,0,0,1,1,2,2,3,3,4,4,5,5,6,6,7,7,8,8,9,9,10,10,11,11,12,12,13,13,15,15,17,17,18,18,19,19,20,20,21,21,22,22,23,23,24,24,25,25,26,26,27,27,28,28,29,29,30,30,35,35,36,36,39,39,41,41,42,42,43,43,44,44,45,45,46,46,49,49,52,52,55,55,57,57,58,58,59,59,61,61,62,62,65,65,70,70,73,73,74,74,75,75,76,76,77,77,78,78,84,84,87,87,89,89,90,90,93,93,94,94,96,96,97,97,98,98,99,99,100,100,105,105,107,107],"right_children":[2,4,6,8,10,12,14,16,18,20,22,24,26,28,-1,30,-1,32,34,36,38,40,42,44,46,48,50,52,54,56,58,-1,-1,-1,-1,60,62,-1,-1,64,-1,66,68,70,72,74,76,-1,-1,78,-1,-1,80,-1,-1,82,-1,84,86,88,-1,90,92,-1,-1,94,-1,-1,-1,-1,96,-1,-1,98,100,102,104,106,108,-1,-1,-1,-1,-1,110,-1,-1,112,-1,114,116,-1,-1,118,120,-1,122,124,126,128,130,-1,-1,-1,-1,132,-1,134,-1,-1,-1,-1,-1,-1,-1,-1,-1,-1,-1,-1,-1,-1,-1,-1,-1,-1,-1,-1,-1,-1,-1,-1,-1,-1,-1],"split_conditions":[6.4931507E0,3.1E1,5.2E1,3.819178E0,3E0,1.3736986E1,3.0117807E1,1E0,1E0,6.052055E0,3.7E1,7.8849316E0,1.5545205E1,1E0,-1.5043214E-2,1.2849315E0,3.283229E-2,1E0,5.367123E0,1E0,4E1,3.3E1,5.8E1,1E0,4.7E1,3.8E1,2.3145205E1,3E0,9.980822E0,7.561644E-1,2E0,-3.18486E-2,1.8611187E-1,-1.3570632E-1,5.5045217E-2,5.2E1,1E0,-6.0097195E-2,-1.999993E-1,4.430137E0,2.1544957E-1,5.279452E0,6.5E1,1E0,2.9E1,3E0,1E0,4.7359426E-2,1.8677895E-1,4.4E1,1.5828013E-1,2.2906025E-1,1E0,-3.038741E-2,5.635881E-2,3E0,1.5775132E-1,2.3561645E0,2.8027396E0,1E0,-2.089372E-1,4.3E1,1E0,8.539616E-2,-1.907018E-2,4.1E1,1.5724707E-1,1.7445447E-1,-4.396852E-3,-4.3894895E-3,1E0,-1.2861352E-1,-1.9611476E-2,4E0,1.0049315E1,3E0,9.276712E0,1.8775343E1,1E0,1.5216765E-1,-4.4296537E-2,-1.7666128E-1,-1.13115525E-2,8.303573E-2,2.9E1,-2.3823877E-1,4.4391337E-3,4.2E1,1.6207705E-1,6.2739724E-1,4.3041096E0,1.5890209E-2,-1.9583115E-1,1E0,4.8E1,2.323211E-1,2E0,1.0676712E1,8.89315E0,8.479452E0,1E0,1.20618835E-1,-1.8980771E-1,-2.4640475E-1,1.5585196E-2,1E0,1.7343724E-1,1.9449314E1,5.0622936E-2,-2.7093459E-2,-2.1722321E-1,-1.182804E-1,7.079127E-2,-1.27631E-1,8.7070994E-2,-3.5899267E-2,1.19816296E-1,-3.8385447E-3,-2.3423147E-1,1.0362505E-1,-9.848203E-2,-1.247501E-2,1.4798167E-1,1.7444697E-1,5.2813194E-3,-1.5921453E-1,5.341913E-2,-6.899671E-2,1.7610617E-1,-1.8216215E-1,-5.8971882E-2,1.0329806E-1,-8.469011E-2,4.303225E-2,-1.3001254E-1],"split_indices":[10,8,8,10,4,10,10,18,5,10,8,10,10,31,0,10,0,43,10,43,8,8,8,21,8,8,10,4,10,10,4,0,0,0,0,8,29,0,0,10,0,10,8,43,8,4,17,0,0,8,0,0,6,0,0,12,0,10,10,44,0,8,13,0,0,8,0,0,0,0,6,0,0,12,10,12,10,10,6,0,0,0,0,0,8,0,0,8,0,10,10,0,0,5,8,0,4,10,10,10,17,0,0,0,0,6,0,10,0,0,0,0,0,0,0,0,0,0,0,0,0,0,0,0,0,0,0,0,0,0,0,0,0,0,0],"split_type":[0,0,0,0,0,0,0,0,0,0,0,0,0,0,0,0,0,0,0,0,0,0,0,0,0,0,0,0,0,0,0,0,0,0,0,0,0,0,0,0,0,0,0,0,0,0,0,0,0,0,0,0,0,0,0,0,0,0,0,0,0,0,0,0,0,0,0,0,0,0,0,0,0,0,0,0,0,0,0,0,0,0,0,0,0,0,0,0,0,0,0,0,0,0,0,0,0,0,0,0,0,0,0,0,0,0,0,0,0,0,0,0,0,0,0,0,0,0,0,0,0,0,0,0,0,0,0,0,0,0,0,0,0,0,0],"sum_hessian":[2.1445486E2,1.3924152E2,7.5213356E1,2.6831667E1,1.1240984E2,6.3572727E1,1.1640629E1,1.908098E1,7.7506866E0,8.770226E1,2.4707582E1,4.785629E1,1.5716436E1,9.767111E0,1.8735175E0,1.760831E1,1.47267E0,4.716887E0,3.0337994E0,8.293662E1,4.7656403E0,5.775978E0,1.8931604E1,1.23632345E1,3.5493057E1,3.236754E0,1.2479682E1,7.4582143E0,2.3088968E0,4.8895493E0,1.2718762E1,1.0549399E0,3.6619473E0,1.9654473E0,1.0683521E0,9.270467E0,7.366615E1,1.4716923E0,3.2939477E0,2.6654146E0,3.1105638E0,1.4540063E1,4.391541E0,1.0069427E1,2.2938087E0,2.7166538E1,8.326517E0,1.0998138E0,2.13694E0,9.360381E0,3.1193008E0,5.0754094E0,2.3828046E0,1.1382549E0,1.1706419E0,3.8709474E0,1.0186017E0,4.8082895E0,7.9104724E0,5.1713376E0,4.099129E0,7.033713E1,3.3290238E0,1.4613208E0,1.2040939E0,1.3288565E1,1.2514987E0,3.147029E0,1.2445121E0,1.9745162E0,8.09491E0,1.0234196E0,1.2703892E0,1.7527742E1,9.638797E0,2.8532267E0,5.4732904E0,4.8226123E0,4.537769E0,1.2924318E0,1.0903729E0,2.7336462E0,1.1373012E0,1.1900744E0,3.618215E0,6.5770626E0,1.33341E0,4.0775905E0,1.0937474E0,2.0494495E1,4.9842636E1,1.4652892E0,1.8637346E0,4.0327845E0,9.25578E0,4.982359E0,3.1125512E0,1.2567177E1,4.9605656E0,4.298872E0,5.339925E0,1.7752482E0,1.0779785E0,3.9769077E0,1.4963825E0,3.076471E0,1.7461414E0,3.4765491E0,1.0612196E0,1.604356E0,2.013859E0,2.8903942E0,1.1871963E0,3.3037515E0,1.7190744E1,4.572119E1,4.1214433E0,2.0430841E0,1.9897002E0,3.6654615E0,5.590318E0,1.9903097E0,1.1222414E0,7.154556E0,5.4126205E0,1.7437167E0,3.2168489E0,2.4507756E0,1.8480964E0,3.2540991E0,2.0858257E0,1.7408448E0,1.3356262E0,1.0088034E0,2.4677458E0],"tree_param":{"num_deleted":"0","num_feature":"48","num_nodes":"135","size_leaf_vector":"1"}},{"base_weights":[1.33082E-2,-1.0074181E-1,2.2800396E-1,-8.121237E-2,-2.5622538E-1,2.8470138E-1,-7.186969E-1,-5.200899E-3,-2.1015802E-1,5.933429E-1,1.9361475E-1,-1.8981354E-1,-3.690354E-2,1.1211934E-1,-2.2608832E-1,-4.717142E-1,-1.6298905E-2,8.113528E-1,2.0756802E-1,-6.937312E-1,2.9766214E-1,1.6819507E-1,-6.201198E-1,1.4068186E-1,-4.7991353E-1,-5.424642E-1,1.153716E-1,-1.9182351E-1,4.3401286E-1,4.0340345E-2,1.8598427E-1,1.2380499E-1,-1.03165425E-1,-8.563427E-1,-6.4287693E-3,1.5749541E-1,4.9446544E-1,1.662445E-2,4.4565296E-1,-4.7083978E-2,-1.4533512E-1,3.907708E-1,-4.8825848E-1,-5.91797E-1,2.783521E-1,-3.8949758E-1,-7.6637816E-1,-2.8369775E-2,6.1729442E-2,-4.1670072E-1,5.477684E-1,9.1947335E-1,-1.6212355E-1,-1.3240668E-1,2.4376172E-1,-5.6747574E-2,-2.0364654E-1,5.96536E-1,-6.3703194E-2,1.9860636E-1,3.623787E-1,7.623829E-2,-1.11344695E-1,1.9233349E-1,1.441536E-1,4.669866E-1,-2.4950778E-2,-1.0707393E-2,-1.3027947E-1,-2.0051037E-1,-4.4763437E-1,1.4756376E-1,-6.2883005E-2,-6.3827395E-1,-2.0957928E-2,-2.923183E-1,-2.1102464E-1,-2.2344658E-1,-7.694982E-1,1.6367489E-1,5.4180413E-2,3.6166906E-1,2.2200155E-1,-4.9660444E-2,1.4633036E-1,2.0215629E-1,2.8846827E-1,-4.7001147E-1,6.5917246E-2,4.2760816E-1,-3.0400772E-2,-4.8856065E-2,5.379479E-2,-7.1828745E-2,9.328281E-2,1.578563E-1,6.426678E-2,1.1624521E-1,-1.2413671E-1,-2.1158715E-1,-1.669599E-2,-8.7157555E-2,7.877027E-2,1.4628835E-1,-1.7638238E-1,-1.5516715E-1,2.8833188E-3,-1.768084E-1,-4.768154E-2,-5.0545257E-2,1.5280841E-1,5.258453E-3,1.5730058E-1,8.830597E-2,-2.8074798E-1,1.0071476E-1,-4.3340385E-2,1.6443859E-1,6.542499E-2],"categories":[],"categories_nodes":[],"categories_segments":[],"categories_sizes":[],"default_left":[0,0,0,0,0,0,0,0,0,0,0,0,0,0,0,0,0,0,0,0,0,0,0,0,0,0,0,0,0,0,0,0,0,0,0,0,0,0,0,0,0,0,0,0,0,0,0,0,0,0,0,0,0,0,0,0,0,0,0,0,0,0,0,0,0,0,0,0,0,0,0,0,0,0,0,0,0,0,0,0,0,0,0,0,0,0,0,0,0,0,0,0,0,0,0,0,0,0,0,0,0,0,0,0,0,0,0,0,0,0,0,0,0,0,0,0,0,0,0],"id":4,"left_children":[1,3,5,7,-1,9,11,13,15,17,19,-1,-1,21,23,25,27,29,31,33,35,37,39,41,43,45,47,49,51,-1,-1,-1,53,55,-1,57,59,61,63,-1,-1,65,67,69,71,73,75,-1,-1,77,79,81,-1,-1,83,-1,-1,85,87,-1,89,91,-1,-1,93,95,-1,-1,-1,-1,97,-1,-1,99,101,103,-1,105,107,-1,-1,109,-1,-1,-1,-1,111,113,115,117,-1,-1,-1,-1,-1,-1,-1,-1,-1,-1,-1,-1,-1,-1,-1,-1,-1,-1,-1,-1,-1,-1,-1,-1,-1,-1,-1,-1,-1],"loss_changes":[5.225383E0,3.110566E0,4.177436E0,1.3539124E0,0E0,1.8684874E0,3.74465E-1,2.305863E0,2.5907202E0,1.1429076E0,5.372848E0,0E0,0E0,2.4917083E0,2.9402666E0,9.671712E-1,2.491419E0,5.076957E-1,9.5545626E-1,6.3658047E-1,1.3230319E0,2.296918E0,7.2125196E-3,2.2976096E0,1.7311435E0,3.7321234E-1,2.0121977E-1,3.989666E0,6.0935917E0,0E0,0E0,0E0,1.097895E0,1.6680813E-1,0E0,3.0609574E0,1.0004988E0,1.2891259E0,2.8670242E0,0E0,0E0,4.5663285E-1,2.6691353E-1,5.229249E-1,1.0638055E0,1.2413228E0,6.396551E-1,0E0,0E0,1.0491998E0,2.0574415E-1,3.2511616E-1,0E0,0E0,1.0726058E0,0E0,0E0,1.0515866E0,1.1686941E0,0E0,6.6576934E-1,2.1610563E0,0E0,0E0,2.336132E0,1.7092884E-1,0E0,0E0,0E0,0E0,2.8450308E0,0E0,0E0,1.8059709E0,1.2985533E0,3.0625105E0,0E0,1.7168071E0,1.4995289E-1,0E0,0E0,9.9009174E-1,0E0,0E0,0E0,0E0,9.501925E-1,5.1714735E0,2.243357E0,3.7146854E-1,0E0,0E0,0E0,0E0,0E0,0E0,0E0,0E0,0E0,0E0,0E0,0E0,0E0,0E0,0E0,0E0,0E0,0E0,0E0,0E0,0E0,0E0,0E0,0E0,0E0,0E0,0E0,0E0,0E0],"parents":[2147483647,0,0,1,1,2,2,3,3,5,5,6,6,7,7,8,8,9,9,10,10,13,13,14,14,15,15,16,16,17,17,18,18,19,19,20,20,21,21,22,22,23,23,24,24,25,25,26,26,27,27,28,28,32,32,33,33,35,35,36,36,37,37,38,38,41,41,42,42,43,43,44,44,45,45,46,46,49,49,50,50,51,51,54,54,57,57,58,58,60,60,61,61,64,64,65,65,70,70,73,73,74,74,75,75,77,77,78,78,81,81,86,86,87,87,88,88,89,89],"right_children":[2,4,6,8,-1,10,12,14,16,18,20,-1,-1,22,24,26,28,30,32,34,36,38,40,42,44,46,48,50,52,-1,-1,-1,54,56,-1,58,60,62,64,-1,-1,66,68,70,72,74,76,-1,-1,78,80,82,-1,-1,84,-1,-1,86,88,-1,90,92,-1,-1,94,96,-1,-1,-1,-1,98,-1,-1,100,102,104,-1,106,108,-1,-1,110,-1,-1,-1,-1,112,114,116,118,-1,-1,-1,-1,-1,-1,-1,-1,-1,-1,-1,-1,-1,-1,-1,-1,-1,-1,-1,-1,-1,-1,-1,-1,-1,-1,-1,-1,-1],"split_conditions":[6.4931507E0,1E0,6E-1,1E0,-2.5622538E-1,8.158904E0,9.59726E0,1E0,1E0,1E0,8.479452E0,-1.8981354E-1,-3.690354E-2,1E0,1.2849315E0,5E-1,3.9561644E0,2E0,7.10137E0,1E0,1.3736986E1,2.5123289E0,1E0,1E0,1E0,3.3333334E-1,2.3561645E0,1E0,4E0,4.0340345E-2,1.8598427E-1,1.2380499E-1,7.208219E0,1E0,-6.4287693E-3,9.79178E0,2E0,1E0,4.208219E0,-4.7083978E-2,-1.4533512E-1,3.3333334E-1,1E0,1.7205479E0,4E0,1.6821917E0,1E0,-2.8369775E-2,6.1729442E-2,3.1753426E0,1E0,1E0,-1.6212355E-1,-1.3240668E-1,1E0,-5.6747574E-2,-2.0364654E-1,1E0,1.0375342E1,1.9860636E-1,3.0117807E1,2E0,-1.11344695E-1,1.9233349E-1,4.789041E0,1E0,-2.4950778E-2,-1.0707393E-2,-1.3027947E-1,-2.0051037E-1,2.550685E0,1.4756376E-1,-6.2883005E-2,2E0,1E0,3.6356165E0,-2.1102464E-1,5.972603E-1,3.3333334E-1,1.6367489E-1,5.4180413E-2,4.6246576E0,2.2200155E-1,-4.9660444E-2,1.4633036E-1,2.0215629E-1,3.3333334E-1,1E0,1.17260275E1,1.4690411E1,-3.0400772E-2,-4.8856065E-2,5.379479E-2,-7.1828745E-2,9.328281E-2,1.578563E-1,6.426678E-2,1.1624521E-1,-1.2413671E-1,-2.1158715E-1,-1.669599E-2,-8.7157555E-2,7.877027E-2,1.4628835E-1,-1.7638238E-1,-1.5516715E-1,2.8833188E-3,-1.768084E-1,-4.768154E-2,-5.0545257E-2,1.5280841E-1,5.258453E-3,1.5730058E-1,8.830597E-2,-2.8074798E-1,1.0071476E-1,-4.3340385E-2,1.6443859E-1,6.542499E-2],"split_indices":[10,11,11,0,0,10,10,6,1,0,10,0,0,44,10,11,10,12,10,5,10,10,9,1,26,11,10,40,12,0,0,0,10,17,0,10,12,31,10,0,0,11,9,10,12,10,5,0,0,10,9,17,0,0,17,0,0,17,10,0,10,12,0,0,10,9,0,0,0,0,10,0,0,12,17,10,0,10,11,0,0,10,0,0,0,0,11,31,10,10,0,0,0,0,0,0,0,0,0,0,0,0,0,0,0,0,0,0,0,0,0,0,0,0,0,0,0,0,0],"split_type":[0,0,0,0,0,0,0,0,0,0,0,0,0,0,0,0,0,0,0,0,0,0,0,0,0,0,0,0,0,0,0,0,0,0,0,0,0,0,0,0,0,0,0,0,0,0,0,0,0,0,0,0,0,0,0,0,0,0,0,0,0,0,0,0,0,0,0,0,0,0,0,0,0,0,0,0,0,0,0,0,0,0,0,0,0,0,0,0,0,0,0,0,0,0,0,0,0,0,0,0,0,0,0,0,0,0,0,0,0,0,0,0,0,0,0,0,0,0,0],"sum_hessian":[2.1146432E2,1.3844876E2,7.301555E1,1.3724683E2,1.2019439E0,6.954954E1,3.4660156E0,8.700126E1,5.0245564E1,1.459186E1,5.4957676E1,1.8789942E0,1.5870215E0,5.714315E1,2.9858109E1,2.077819E1,2.9467371E1,8.618294E0,5.973566E0,5.1730423E0,4.9784634E1,5.3793854E1,3.349296E0,1.2394362E1,1.7463745E1,1.8611334E1,2.1668563E0,2.1615862E1,7.85151E0,1.8430278E0,6.775266E0,2.1433342E0,3.830232E0,3.9161227E0,1.2569196E0,3.0127542E1,1.9657093E1,3.5474594E1,1.8319262E1,1.4226046E0,1.9266915E0,9.139041E0,3.2553217E0,1.5409574E1,2.0541713E0,1.268505E1,5.926285E0,1.0437987E0,1.1230576E0,1.6910658E1,4.705203E0,5.836333E0,2.0151775E0,1.119133E0,2.711099E0,1.4698658E0,2.4462566E0,9.525083E0,2.0602459E1,2.7519045E0,1.6905188E1,3.2918884E1,2.5557108E0,5.948619E0,1.2370644E1,8.043963E0,1.095077E0,1.2507023E0,2.0046196E0,2.4563928E0,1.2953181E1,1.0193491E0,1.0348222E0,7.1360683E0,5.5489817E0,3.0050266E0,2.921258E0,1.1981069E1,4.9295897E0,1.3903977E0,3.3148053E0,2.2238934E0,3.6124392E0,1.5942646E0,1.1168343E0,3.0895977E0,6.435485E0,4.347796E0,1.6254663E1,1.51523905E1,1.7527976E0,1.2261169E1,2.0657713E1,4.7842636E0,7.5863795E0,1.1283238E0,6.91564E0,1.5253731E0,1.1427808E1,3.5464988E0,3.5895696E0,2.7491357E0,2.799846E0,1.0102535E0,1.994773E0,2.9254992E0,9.05557E0,3.508344E0,1.421246E0,1.0272559E0,1.1966375E0,4.9057736E0,1.5297114E0,2.4667718E0,1.8810244E0,6.071182E0,1.0183481E1,1.6176598E0,1.353473E1],"tree_param":{"num_deleted":"0","num_feature":"48","num_nodes":"119","size_leaf_vector":"1"}},{"base_weights":[1.0950575E-2,-8.5816465E-2,1.9673863E-1,-2.9095054E-1,4.8943274E-2,1.09222725E-1,4.1395763E-1,-3.9268893E-1,-5.1518146E-2,1.09135866E-1,-2.6253763E-1,1.547539E-1,-1.550586E-1,2.7575788E-1,6.6948754E-1,1.0613956E-2,-4.9873924E-1,6.322305E-2,-1.2013562E-1,1.3807002E-1,-1.24123015E-1,-4.9226967E-1,2.977379E-1,6.3674617E-1,8.683272E-2,4.737021E-1,-1.6640213E-1,8.906662E-1,-3.0656237E-2,-2.3768991E-1,1.21197455E-1,-5.601125E-1,7.4346185E-2,3.090964E-1,-3.5978723E-1,-1.6609874E-2,2.5784233E-1,-7.1408373E-1,6.7693517E-3,1.2754516E-1,-3.883792E-2,-7.4756846E-2,2.0136581E-1,1.9512367E-2,1.3652591E-1,6.5070903E-1,-8.6773425E-2,-1.07756376E-1,1.6628778E-1,6.295257E-2,1.9997011E-1,9.645965E-2,-1.2508796E-1,-6.0303015E-1,2.1907622E-2,1.0369215E-1,-1.0033535E-1,5.5879396E-1,-2.0023657E-1,-7.491499E-1,6.608683E-2,1.5473494E-1,-7.1550116E-2,3.7000707E-1,-3.0123688E-2,-8.772455E-1,7.2500044E-3,6.0949903E-2,-7.851916E-2,1.1415854E-1,-5.3743434E-1,1.5253203E-1,1.17201805E-2,1.5659213E-1,-1.2728292E-1,-1.3880196E-1,1.4092758E-1,-3.322216E-1,-1.6981034E-1,1.1752642E-1,2.0976536E-1,-9.733186E-2,5.85163E-2,-4.0668353E-2,-1.8384968E-1,-3.2890165E-1,6.1458495E-2,4.2659044E-1,-4.421064E-2,1.20073475E-1,-2.0391844E-1,-4.0951636E-1,-2.077239E-1,2.0467661E-2,1.9807105E-1,-1.6888277E-1,-1.7580013E-1,-9.145222E-2,1.0337379E-1,-6.778698E-2,7.494997E-2,-9.402242E-2,7.403248E-2,4.0141396E-2,-1.21636465E-1,9.093502E-2,-1.9050375E-2,-7.3952615E-2,9.7432606E-2,-1.2918043E-1,2.0107466E-3,5.4839384E-2,-3.6345936E-2,5.0845504E-2,-1.11703716E-1],"categories":[],"categories_nodes":[],"categories_segments":[],"categories_sizes":[],"default_left":[0,0,0,0,0,0,0,0,0,0,0,0,0,0,0,0,0,0,0,0,0,0,0,0,0,0,0,0,0,0,0,0,0,0,0,0,0,0,0,0,0,0,0,0,0,0,0,0,0,0,0,0,0,0,0,0,0,0,0,0,0,0,0,0,0,0,0,0,0,0,0,0,0,0,0,0,0,0,0,0,0,0,0,0,0,0,0,0,0,0,0,0,0,0,0,0,0,0,0,0,0,0,0,0,0,0,0,0,0,0,0,0,0,0,0],"id":5,"left_children":[1,3,5,7,9,11,13,15,17,19,21,23,-1,25,27,29,31,33,-1,35,-1,37,39,41,43,45,47,49,-1,51,-1,53,55,57,59,61,63,65,67,-1,-1,-1,-1,69,-1,71,-1,-1,73,-1,-1,75,-1,77,-1,-1,-1,79,81,83,-1,-1,85,87,89,91,-1,-1,-1,93,95,-1,-1,-1,-1,-1,-1,97,-1,99,-1,-1,-1,-1,-1,101,103,105,-1,-1,107,109,-1,111,-1,-1,113,-1,-1,-1,-1,-1,-1,-1,-1,-1,-1,-1,-1,-1,-1,-1,-1,-1,-1],"loss_changes":[3.780536E0,3.8386836E0,1.3234897E0,1.3194251E0,1.6101514E0,2.241563E0,5.3292036E-1,1.6495805E0,1.1438756E0,1.5932245E0,1.942687E0,1.612181E0,0E0,1.3817939E0,1.3069215E0,1.4721041E0,1.11302E0,1.7152352E0,0E0,1.2917267E0,0E0,1.1420362E0,9.067393E-1,2.6700158E0,1.8237427E0,1.9760845E0,7.5160843E-1,1.3246059E-2,0E0,9.7478974E-1,0E0,8.6018085E-1,1.2397397E0,1.4207106E0,1.8952707E0,1.4128926E0,1.2781365E0,9.0366244E-1,6.137246E-1,0E0,0E0,0E0,0E0,2.2848387E0,0E0,5.6665707E-1,0E0,0E0,2.2735782E0,0E0,0E0,2.7280164E0,0E0,1.4582348E0,0E0,0E0,0E0,1.427032E0,7.2417784E-1,2.0542192E-1,0E0,0E0,1.052226E0,1.0409553E0,1.4286381E0,1.9184113E-2,0E0,0E0,0E0,3.007181E0,5.511805E-1,0E0,0E0,0E0,0E0,0E0,0E0,1.7308921E0,0E0,7.0217794E-1,0E0,0E0,0E0,0E0,0E0,1.2036492E0,2.054044E0,4.269066E-1,0E0,0E0,1.3367077E0,3.2006538E-1,0E0,1.8114613E0,0E0,0E0,8.2605374E-1,0E0,0E0,0E0,0E0,0E0,0E0,0E0,0E0,0E0,0E0,0E0,0E0,0E0,0E0,0E0,0E0,0E0,0E0],"parents":[2147483647,0,0,1,1,2,2,3,3,4,4,5,5,6,6,7,7,8,8,9,9,10,10,11,11,13,13,14,14,15,15,16,16,17,17,19,19,21,21,22,22,23,23,24,24,25,25,26,26,27,27,29,29,31,31,32,32,33,33,34,34,35,35,36,36,37,37,38,38,43,43,45,45,48,48,51,51,53,53,57,57,58,58,59,59,62,62,63,63,64,64,65,65,69,69,70,70,77,77,79,79,85,85,86,86,87,87,90,90,91,91,93,93,96,96],"right_children":[2,4,6,8,10,12,14,16,18,20,22,24,-1,26,28,30,32,34,-1,36,-1,38,40,42,44,46,48,50,-1,52,-1,54,56,58,60,62,64,66,68,-1,-1,-1,-1,70,-1,72,-1,-1,74,-1,-1,76,-1,78,-1,-1,-1,80,82,84,-1,-1,86,88,90,92,-1,-1,-1,94,96,-1,-1,-1,-1,-1,-1,98,-1,100,-1,-1,-1,-1,-1,102,104,106,-1,-1,108,110,-1,112,-1,-1,114,-1,-1,-1,-1,-1,-1,-1,-1,-1,-1,-1,-1,-1,-1,-1,-1,-1,-1],"split_conditions":[6.4931507E0,1E0,1.3736986E1,1.845E5,1E0,1.3372602E1,2.0835E5,9.99E4,5.758904E0,6.263014E0,1E0,7.10137E0,-1.550586E-1,1.77012E5,1E0,2.30137E0,4.9589043E0,3.105E5,-1.2013562E-1,1.395E5,-1.24123015E-1,3.1753426E0,1.602E5,1E0,1.2383562E1,3.0117807E1,1E0,1.5824657E1,-3.0656237E-2,1E0,1.21197455E-1,1E0,1E0,3.819178E0,2.3561645E0,6.525E4,1E0,1E0,1E0,1.2754516E-1,-3.883792E-2,-7.4756846E-2,2.0136581E-1,1.17260275E1,1.3652591E-1,1.5525E5,-8.6773425E-2,-1.07756376E-1,1E0,6.295257E-2,1.9997011E-1,1E0,-1.2508796E-1,2.1780822E0,2.1907622E-2,1.0369215E-1,-1.0033535E-1,1E0,4.789041E0,1E0,6.608683E-2,1.5473494E-1,9.09E4,4.23E5,1.602E5,2.295E5,7.2500044E-3,6.0949903E-2,-7.851916E-2,3.24E5,1.189589E1,1.5253203E-1,1.17201805E-2,1.5659213E-1,-1.2728292E-1,-1.3880196E-1,1.4092758E-1,1E0,-1.6981034E-1,3.7260273E-1,2.0976536E-1,-9.733186E-2,5.85163E-2,-4.0668353E-2,-1.8384968E-1,2.8575342E0,5.049315E0,1E0,-4.421064E-2,1.20073475E-1,2.4975E5,1.395E5,-2.077239E-1,1.77012E5,1.9807105E-1,-1.6888277E-1,1.219726E1,-9.145222E-2,1.0337379E-1,-6.778698E-2,7.494997E-2,-9.402242E-2,7.403248E-2,4.0141396E-2,-1.21636465E-1,9.093502E-2,-1.9050375E-2,-7.3952615E-2,9.7432606E-2,-1.2918043E-1,2.0107466E-3,5.4839384E-2,-3.6345936E-2,5.0845504E-2,-1.11703716E-1],"split_indices":[10,2,10,3,21,10,3,3,10,10,40,10,0,3,33,10,10,3,0,3,0,10,3,43,10,10,2,10,0,6,0,37,13,10,10,3,14,1,6,0,0,0,0,10,0,3,0,0,13,0,0,43,0,10,0,0,0,1,10,0,0,0,3,3,3,3,0,0,0,3,10,0,0,0,0,0,0,13,0,10,0,0,0,0,0,10,10,23,0,0,3,3,0,3,0,0,10,0,0,0,0,0,0,0,0,0,0,0,0,0,0,0,0,0,0],"split_type":[0,0,0,0,0,0,0,0,0,0,0,0,0,0,0,0,0,0,0,0,0,0,0,0,0,0,0,0,0,0,0,0,0,0,0,0,0,0,0,0,0,0,0,0,0,0,0,0,0,0,0,0,0,0,0,0,0,0,0,0,0,0,0,0,0,0,0,0,0,0,0,0,0,0,0,0,0,0,0,0,0,0,0,0,0,0,0,0,0,0,0,0,0,0,0,0,0,0,0,0,0,0,0,0,0,0,0,0,0,0,0,0,0,0,0],"sum_hessian":[2.0834583E2,1.3734715E2,7.099867E1,5.399532E1,8.335183E1,5.1680008E1,1.9318665E1,3.7444508E1,1.6550814E1,7.03974E1,1.2954429E1,4.9934624E1,1.7453845E0,1.3887156E1,5.4315104E0,7.983533E0,2.9460974E1,1.4422299E1,2.1285148E0,6.8492516E1,1.9048852E0,9.273399E0,3.68103E0,5.133159E0,4.4801464E1,9.543449E0,4.3437057E0,4.2157097E0,1.2158005E0,6.057845E0,1.9256877E0,2.6631565E1,2.8294082E0,9.291145E0,5.131154E0,3.0266361E1,3.8226154E1,6.1215568E0,3.1518424E0,2.0014071E0,1.6796229E0,1.3732977E0,3.7598617E0,4.1181076E1,3.6203876E0,8.222753E0,1.320697E0,1.7572947E0,2.586411E0,1.2906911E0,2.9250188E0,3.6573226E0,2.4005227E0,2.5121054E1,1.5105127E0,1.6540576E0,1.1753504E0,6.169482E0,3.1216629E0,3.225968E0,1.905186E0,1.116989E0,2.9149372E1,2.7305555E1,1.09206E1,4.8892403E0,1.2323164E0,1.9407194E0,1.2111229E0,3.5878925E1,5.30215E0,6.6730285E0,1.5497243E0,1.4766073E0,1.1098036E0,1.5289572E0,2.1283653E0,1.3076954E1,1.2044099E1,3.8986437E0,2.2708387E0,1.982148E0,1.1395147E0,1.2881179E0,1.93785E0,9.430328E0,1.9719044E1,2.5173872E1,2.1316829E0,1.8294121E0,9.0911875E0,2.1616282E0,2.727612E0,3.3337536E1,2.5413916E0,2.1457222E0,3.1564279E0,1.180063E1,1.2763247E0,1.2906413E0,2.6080024E0,8.118009E0,1.3123202E0,1.690418E1,2.8148634E0,2.4010386E1,1.1634859E0,7.706697E0,1.3844907E0,1.0376041E0,1.1240242E0,1.4626831E1,1.8710705E1,1.6444423E0,1.5119855E0],"tree_param":{"num_deleted":"0","num_feature":"48","num_nodes":"115","size_leaf_vector":"1"}},{"base_weights":[1.0212131E-2,-1.0002649E-2,6.837111E-1,-1.3811837E-1,7.124266E-2,1.6296402E-1,4.8947927E-2,-8.52572E-2,-1.5113156E-1,9.7892106E-2,-2.1056947E-1,-4.0425383E-2,-4.2042825E-1,1.3464923E-1,-1.06397554E-1,-3.5992783E-1,9.315736E-2,2.1803126E-1,-8.382322E-2,-1.6298701E-1,-1.9807689E-1,1.537254E-1,-4.5994768E-1,5.1536474E-2,-1.1501477E-1,-5.0655246E-1,7.2181486E-2,6.8138653E-1,-4.346291E-1,-3.1141683E-2,-1.9820349E-1,-5.7880115E-2,-8.571617E-2,1.7184947E-1,-6.1625052E-2,-2.750565E-2,-1.1678582E-1,-1.0982228E-1,4.7543928E-1,-1.2108741E-1,-3.2259192E-2,1.159508E-2,1.8255964E-1,-6.1863524E-1,1.0001471E-2,7.555519E-2,-1.8871507E-1,-3.0979102E-2,2.4082687E-2,2.4184094E-1,6.064155E-3,-9.037146E-2,1.3137321E-1,-1.9313607E-1,4.319535E-2,1.3138992E-1,1.7375678E-3,-1.4924523E-2,-1.718963E-1,1.5401131E-3,1.374291E-1,-5.850727E-2,-1.9012021E-3,-5.054287E-2,4.4516418E-2,7.031582E-2,6.8897167E-3,2.9491246E-2,-5.596717E-2,-5.4975193E-2,1.1401373E-2],"categories":[],"categories_nodes":[],"categories_segments":[],"categories_sizes":[],"default_left":[0,0,0,0,0,0,0,0,0,0,0,0,0,0,0,0,0,0,0,0,0,0,0,0,0,0,0,0,0,0,0,0,0,0,0,0,0,0,0,0,0,0,0,0,0,0,0,0,0,0,0,0,0,0,0,0,0,0,0,0,0,0,0,0,0,0,0,0,0,0,0],"id":6,"left_children":[1,3,5,7,9,-1,-1,11,-1,13,15,17,19,21,23,25,-1,27,29,-1,31,33,35,37,-1,39,-1,41,43,45,-1,47,-1,49,51,-1,-1,53,55,-1,-1,-1,-1,57,-1,59,61,-1,63,65,67,-1,-1,69,-1,-1,-1,-1,-1,-1,-1,-1,-1,-1,-1,-1,-1,-1,-1,-1,-1],"loss_changes":[2.8187745E0,2.1072633E0,1.4779425E-1,2.4993217E0,9.516291E-1,0E0,0E0,1.0870094E0,0E0,8.699162E-1,1.2816443E0,7.575507E-1,5.895959E-1,1.1710215E0,1.3570608E0,1.197139E0,0E0,3.2457702E0,2.7007701E0,0E0,1.948323E-1,3.8036728E-1,5.0247908E-2,1.0324653E0,0E0,1.8881297E-1,0E0,8.2615304E-1,4.4650745E-1,9.398203E-1,0E0,4.6528555E-2,0E0,1.0155911E0,2.5652325E0,0E0,0E0,3.4551156E-1,3.449304E-1,0E0,0E0,0E0,0E0,3.8821805E-1,0E0,1.3865576E0,4.1608137E-1,0E0,2.6409927E-1,1.3899553E0,1.1345382E0,0E0,0E0,2.0870587E-1,0E0,0E0,0E0,0E0,0E0,0E0,0E0,0E0,0E0,0E0,0E0,0E0,0E0,0E0,0E0,0E0,0E0],"parents":[2147483647,0,0,1,1,2,2,3,3,4,4,7,7,9,9,10,10,11,11,12,12,13,13,14,14,15,15,17,17,18,18,20,20,21,21,22,22,23,23,25,25,27,27,28,28,29,29,31,31,33,33,34,34,37,37,38,38,43,43,45,45,46,46,48,48,49,49,50,50,53,53],"right_children":[2,4,6,8,10,-1,-1,12,-1,14,16,18,20,22,24,26,-1,28,30,-1,32,34,36,38,-1,40,-1,42,44,46,-1,48,-1,50,52,-1,-1,54,56,-1,-1,-1,-1,58,-1,60,62,-1,64,66,68,-1,-1,70,-1,-1,-1,-1,-1,-1,-1,-1,-1,-1,-1,-1,-1,-1,-1,-1,-1],"split_conditions":[1E0,1E0,1E0,1E0,1E0,1.6296402E-1,4.8947927E-2,1E0,-1.5113156E-1,1E0,1E0,2E0,2E0,1E0,2E0,1E0,9.315736E-2,1E0,1E0,-1.6298701E-1,4E0,1E0,1E0,1E0,-1.1501477E-1,1E0,7.2181486E-2,1E0,1E0,1E0,-1.9820349E-1,1E0,-8.571617E-2,3E0,3E0,-2.750565E-2,-1.1678582E-1,1E0,1E0,-1.2108741E-1,-3.2259192E-2,1.159508E-2,1.8255964E-1,1E0,1.0001471E-2,1E0,3E0,-3.0979102E-2,1E0,1E0,1E0,-9.037146E-2,1.3137321E-1,1E0,4.319535E-2,1.3138992E-1,1.7375678E-3,-1.4924523E-2,-1.718963E-1,1.5401131E-3,1.374291E-1,-5.850727E-2,-1.9012021E-3,-5.054287E-2,4.4516418E-2,7.031582E-2,6.8897167E-3,2.9491246E-2,-5.596717E-2,-5.4975193E-2,1.1401373E-2],"split_indices":[34,2,1,22,18,0,0,27,0,21,5,12,12,25,12,9,0,6,21,0,12,27,5,6,0,1,0,43,5,5,0,1,0,12,12,0,0,9,1,0,0,0,0,20,0,37,12,0,43,14,6,0,0,1,0,0,0,0,0,0,0,0,0,0,0,0,0,0,0,0,0],"split_type":[0,0,0,0,0,0,0,0,0,0,0,0,0,0,0,0,0,0,0,0,0,0,0,0,0,0,0,0,0,0,0,0,0,0,0,0,0,0,0,0,0,0,0,0,0,0,0,0,0,0,0,0,0,0,0,0,0,0,0,0,0,0,0,0,0,0,0,0,0,0,0],"sum_hessian":[2.0553772E2,2.005048E2,5.0329165E0,7.753688E1,1.2296792E2,3.2161396E0,1.816777E0,7.247141E1,5.06547E0,1.1294039E2,1.0027528E1,6.490981E1,7.5615964E0,9.600707E1,1.6933325E1,8.596929E0,1.430599E0,8.753594E0,5.615622E1,1.7649889E0,5.7966075E0,9.374108E1,2.2659888E0,1.3331073E1,3.6022522E0,7.390834E0,1.2060947E0,5.0934753E0,3.6601193E0,5.4051716E1,2.104501E0,4.382309E0,1.4142985E0,8.6650505E1,7.0905766E0,1.2151636E0,1.0508251E0,1.0192297E1,3.1387758E0,5.1595163E0,2.2313175E0,1.7174047E0,3.3760707E0,2.4524739E0,1.2076453E0,3.2539154E1,2.1512564E1,1.599377E0,2.782932E0,6.0605312E1,2.604519E1,4.8354263E0,2.2551503E0,8.440956E0,1.7513406E0,1.9665359E0,1.1722399E0,1.1545234E0,1.2979505E0,3.0201008E1,2.3381455E0,1.3220912E1,8.291652E0,1.0481782E0,1.7347537E0,3.917911E1,2.14262E1,1.7750772E1,8.294419E0,6.2874975E0,2.1534588E0],"tree_param":{"num_deleted":"0","num_feature":"48","num_nodes":"71","size_leaf_vector":"1"}},{"base_weights":[7.278081E-3,2.1615645E-2,-2.3856512E-1,4.3592267E-3,6.14206E-1,-1.00230984E-1,7.087061E-2,7.387164E-1,4.320432E-2,-5.4626293E-2,-1.262136E-1,6.7240777E-3,2.7736232E-1,1.702138E-1,4.7235712E-2,-4.9312893E-1,-1.8993063E-2,7.693995E-2,-3.5241187E-1,6.1262083E-1,1.8433015E-1,-1.5880616E-1,-5.900506E-2,-5.274691E-2,4.5607612E-1,1.7489251E-1,-1.0533053E-1,-6.142175E-1,3.7440047E-2,3.8049806E-2,1.5192546E-1,1.4102624E-1,9.9747814E-2,8.220444E-2,-1.0243801E-1,2.6092523E-1,-7.5747035E-2,1.448147E-1,-4.754572E-2,-2.7708314E-2,3.1763193E-1,-2.4701414E-1,6.457566E-1,3.1803504E-2,-1.60842E-1,-5.839946E-1,6.0873026E-1,-2.6088136E-1,3.1521845E-1,-6.716808E-2,1.4132167E-1,-2.1974191E-2,5.805428E-2,6.936106E-2,-7.650629E-2,1.4220582E-1,2.5983134E-2,-1.2118663E-1,-2.208097E-2,1.9158417E-1,-5.194943E-2,-4.2307097E-2,-1.4806736E-1,1.703373E-1,2.42924E-2,-8.480268E-2,7.903518E-2,3.0267064E-2,1.2881088E-1],"categories":[],"categories_nodes":[],"categories_segments":[],"categories_sizes":[],"default_left":[0,0,0,0,0,0,0,0,0,0,0,0,0,0,0,0,0,0,0,0,0,0,0,0,0,0,0,0,0,0,0,0,0,0,0,0,0,0,0,0,0,0,0,0,0,0,0,0,0,0,0,0,0,0,0,0,0,0,0,0,0,0,0,0,0,0,0,0,0],"id":7,"left_children":[1,3,-1,5,7,9,11,13,-1,15,-1,17,19,-1,-1,21,23,25,27,29,31,-1,33,35,37,39,41,43,45,-1,-1,-1,47,-1,-1,49,51,-1,-1,53,55,57,59,-1,-1,61,63,65,67,-1,-1,-1,-1,-1,-1,-1,-1,-1,-1,-1,-1,-1,-1,-1,-1,-1,-1,-1,-1],"loss_changes":[3.5522819E0,2.0784473E0,0E0,1.3897779E0,1.2557173E-1,1.8460021E0,1.615227E0,2.3044825E-2,0E0,1.1254525E0,0E0,2.4018686E0,7.8881836E-1,0E0,0E0,6.60916E-1,1.1178157E0,1.4394542E0,1.6131872E0,2.1869636E-1,9.8959905E-1,0E0,9.1309917E-1,4.8568046E-1,1.0327369E0,1.516836E0,3.186624E0,1.5056245E0,2.9123135E0,0E0,0E0,0E0,1.7812306E0,0E0,0E0,1.4705698E0,7.930777E-1,0E0,0E0,3.1190825E0,2.1727448E0,1.1419666E0,1.6030886E0,0E0,0E0,7.398367E-2,3.9873815E-1,1.1013341E0,6.6453433E-1,0E0,0E0,0E0,0E0,0E0,0E0,0E0,0E0,0E0,0E0,0E0,0E0,0E0,0E0,0E0,0E0,0E0,0E0,0E0,0E0],"parents":[2147483647,0,0,1,1,3,3,4,4,5,5,6,6,7,7,9,9,11,11,12,12,15,15,16,16,17,17,18,18,19,19,20,20,22,22,23,23,24,24,25,25,26,26,27,27,28,28,32,32,35,35,36,36,39,39,40,40,41,41,42,42,45,45,46,46,47,47,48,48],"right_children":[2,4,-1,6,8,10,12,14,-1,16,-1,18,20,-1,-1,22,24,26,28,30,32,-1,34,36,38,40,42,44,46,-1,-1,-1,48,-1,-1,50,52,-1,-1,54,56,58,60,-1,-1,62,64,66,68,-1,-1,-1,-1,-1,-1,-1,-1,-1,-1,-1,-1,-1,-1,-1,-1,-1,-1,-1,-1],"split_conditions":[1E0,1E0,-2.3856512E-1,1E0,1E0,1E0,5.5E1,5E1,4.320432E-2,2.7E1,-1.262136E-1,5.1E1,1E0,1.702138E-1,4.7235712E-2,1E0,1E0,3E0,5.3E1,5.7E1,5.7E1,-1.5880616E-1,3.3333334E-1,2.9E1,4.8E1,3.7E1,1E0,1E0,1E0,3.8049806E-2,1.5192546E-1,1.4102624E-1,6E1,8.220444E-2,-1.0243801E-1,1E0,1E0,1.448147E-1,-4.754572E-2,3.3E1,4.2E1,2.9E1,1E0,3.1803504E-2,-1.60842E-1,1E0,1E0,1E0,1E0,-6.716808E-2,1.4132167E-1,-2.1974191E-2,5.805428E-2,6.936106E-2,-7.650629E-2,1.4220582E-1,2.5983134E-2,-1.2118663E-1,-2.208097E-2,1.9158417E-1,-5.194943E-2,-4.2307097E-2,-1.4806736E-1,1.703373E-1,2.42924E-2,-8.480268E-2,7.903518E-2,3.0267064E-2,1.2881088E-1],"split_indices":[11,34,0,2,1,22,8,8,0,8,0,8,40,0,0,43,15,4,8,8,8,0,11,8,8,8,40,19,19,0,0,0,8,0,0,19,37,0,0,8,8,8,15,0,0,40,40,1,6,0,0,0,0,0,0,0,0,0,0,0,0,0,0,0,0,0,0,0,0],"split_type":[0,0,0,0,0,0,0,0,0,0,0,0,0,0,0,0,0,0,0,0,0,0,0,0,0,0,0,0,0,0,0,0,0,0,0,0,0,0,0,0,0,0,0,0,0,0,0,0,0,0,0,0,0,0,0,0,0,0,0,0,0,0,0,0,0,0,0,0,0],"sum_hessian":[2.0395078E2,2.0251335E2,1.4374261E0,1.9776183E2,4.7515306E0,7.667779E1,1.2108403E2,2.968182E0,1.7833482E0,7.1627144E1,5.050647E0,9.3172585E1,2.7911444E1,1.8590183E0,1.1091639E0,4.4181657E0,6.720898E1,7.859247E1,1.45801115E1,4.849682E0,2.3061762E1,2.119823E0,2.298343E0,6.358053E1,3.628451E0,5.1146633E1,2.7445839E1,8.378202E0,6.201909E0,1.8444505E0,3.0052316E0,2.1970692E0,2.0864693E1,1.1738768E0,1.1244662E0,3.6368754E0,5.9943653E1,2.5859456E0,1.0425055E0,2.1473524E1,2.967311E1,2.3654774E1,3.7910655E0,1.6847223E0,6.6934805E0,2.9599328E0,3.2419763E0,7.724908E0,1.3139786E1,1.6602607E0,1.9766146E0,5.5471832E1,4.4718204E0,1.0457886E1,1.1015637E1,8.684729E0,2.098838E1,5.5741277E0,1.8080645E1,2.7761319E0,1.0149337E0,1.5707977E0,1.389135E0,1.6642745E0,1.5777019E0,6.4698424E0,1.2550653E0,9.743899E0,3.3958864E0],"tree_param":{"num_deleted":"0","num_feature":"48","num_nodes":"69","size_leaf_vector":"1"}},{"base_weights":[9.102903E-3,2.1888444E-2,-2.129333E-1,-6.807698E-2,1.3651633E-1,-1.7456253E-1,8.631566E-2,2.6326352E-1,-8.680448E-2,-6.042563E-1,-1.0749306E-1,1.3682345E-1,-1.094412E-1,1.1701307E-1,5.1289314E-1,-5.194517E-1,1.1026668E-2,2.3683827E-2,-8.2802844E-1,-1.7464125E-1,2.9281634E-1,1.690126E-1,-1.1859316E-1,1.9501942E-1,-2.702046E-1,9.7188175E-1,2.798106E-1,-7.311177E-1,4.7958087E-2,2.0574015E-1,-2.5195366E-1,-2.0225786E-1,-2.3006989E-2,2.1847232E-1,-2.4551757E-1,5.995639E-1,-4.2134252E-1,5.356872E-1,7.3432244E-2,6.217966E-1,9.6207745E-2,-1.5964155E-1,1.714217E-1,4.0837176E-2,2.1605082E-1,-7.2319284E-2,6.5037155E-1,-1.8079102E-1,-4.2259026E-2,-1.9475332E-1,5.6749815E-1,3.783732E-1,-4.9577892E-1,-7.882717E-2,1.444078E-1,-7.369112E-1,-1.5288308E-1,1.6932864E-1,-3.0514149E-2,-1.1969557E-1,-1.2532311E-2,6.763666E-1,-1.1560689E-2,2.0984109E-1,-1.8577646E-1,1.9833413E-1,-2.2256432E-2,-1.5883563E-1,2.0210642E-1,-4.912265E-2,7.457629E-2,1.4469476E-1,-3.0736828E-1,8.285738E-1,-2.0590043E-2,2.3787586E-1,-5.967228E-1,1.976354E-1,2.3755728E-1,-2.876675E-2,1.2291367E-1,-5.175256E-2,-8.706879E-1,-7.730707E-2,4.090133E-2,-1.6774194E-1,-3.831674E-2,5.9311893E-2,-4.9423076E-2,1.698225E-1,-2.240568E-2,2.2416761E-2,1.8077525E-1,-7.672461E-2,1.3200489E-1,1.2424459E-1,5.5272593E-3,-1.5745264E-1,5.7343394E-2,4.5369796E-2,1.8129508E-1,1.3751885E-1,-1.07585385E-1,2.101776E-3,-1.6707228E-1,1.567387E-1,-1.3211891E-2,-1.1022755E-1,8.656507E-2,-2.2226477E-1,-4.4778284E-2],"categories":[],"categories_nodes":[],"categories_segments":[],"categories_sizes":[],"default_left":[0,0,0,0,0,0,0,0,0,0,0,0,0,0,0,0,0,0,0,0,0,0,0,0,0,0,0,0,0,0,0,0,0,0,0,0,0,0,0,0,0,0,0,0,0,0,0,0,0,0,0,0,0,0,0,0,0,0,0,0,0,0,0,0,0,0,0,0,0,0,0,0,0,0,0,0,0,0,0,0,0,0,0,0,0,0,0,0,0,0,0,0,0,0,0,0,0,0,0,0,0,0,0,0,0,0,0,0,0,0,0],"id":8,"left_children":[1,3,-1,5,7,9,11,13,15,17,19,21,-1,23,25,27,29,-1,31,33,35,37,-1,39,41,43,45,47,-1,49,51,-1,-1,53,55,57,59,61,63,65,67,-1,69,-1,-1,71,73,-1,-1,75,77,79,81,83,-1,85,87,-1,-1,-1,-1,89,-1,91,93,-1,-1,-1,95,-1,-1,-1,97,99,-1,101,103,-1,105,-1,-1,107,109,-1,-1,-1,-1,-1,-1,-1,-1,-1,-1,-1,-1,-1,-1,-1,-1,-1,-1,-1,-1,-1,-1,-1,-1,-1,-1,-1,-1],"loss_changes":[2.8127823E0,2.0901027E0,0E0,1.8846228E0,2.5436835E0,1.8841002E0,1.5815113E0,2.023217E0,1.4023716E0,1.5396664E0,1.6562937E0,1.1434447E0,0E0,1.1786594E0,1.9516587E0,1.1566032E0,1.4800131E0,0E0,7.8942347E-1,1.4959115E0,2.2135873E0,1.4785858E0,0E0,1.2730756E0,1.6920453E0,3.2817745E-1,2.0289783E0,2.601905E-1,0E0,2.5120745E0,2.0802686E0,0E0,0E0,1.3199173E0,1.9051366E0,1.369555E0,1.7069626E-1,7.7354074E-1,1.2947217E0,1.6719384E0,2.6920342E0,0E0,4.6588108E-1,0E0,0E0,1.8474867E0,1.0922472E0,0E0,0E0,1.6394842E0,1.0095363E0,5.8202964E-1,1.5052383E0,6.2012553E-1,0E0,2.1509814E-1,1.706316E0,0E0,0E0,0E0,0E0,1.0743103E0,0E0,1.5092937E0,2.3910947E0,0E0,0E0,0E0,1.7956656E0,0E0,0E0,0E0,2.3379893E0,8.388996E-2,0E0,2.0663533E0,6.9692874E-1,0E0,1.1031513E0,0E0,0E0,1.5275367E0,5.2725005E-1,0E0,0E0,0E0,0E0,0E0,0E0,0E0,0E0,0E0,0E0,0E0,0E0,0E0,0E0,0E0,0E0,0E0,0E0,0E0,0E0,0E0,0E0,0E0,0E0,0E0,0E0,0E0,0E0],"parents":[2147483647,0,0,1,1,3,3,4,4,5,5,6,6,7,7,8,8,9,9,10,10,11,11,13,13,14,14,15,15,16,16,18,18,19,19,20,20,21,21,23,23,24,24,25,25,26,26,27,27,29,29,30,30,33,33,34,34,35,35,36,36,37,37,38,38,39,39,40,40,42,42,45,45,46,46,49,49,50,50,51,51,52,52,53,53,55,55,56,56,61,61,63,63,64,64,68,68,72,72,73,73,75,75,76,76,78,78,81,81,82,82],"right_children":[2,4,-1,6,8,10,12,14,16,18,20,22,-1,24,26,28,30,-1,32,34,36,38,-1,40,42,44,46,48,-1,50,52,-1,-1,54,56,58,60,62,64,66,68,-1,70,-1,-1,72,74,-1,-1,76,78,80,82,84,-1,86,88,-1,-1,-1,-1,90,-1,92,94,-1,-1,-1,96,-1,-1,-1,98,100,-1,102,104,-1,106,-1,-1,108,110,-1,-1,-1,-1,-1,-1,-1,-1,-1,-1,-1,-1,-1,-1,-1,-1,-1,-1,-1,-1,-1,-1,-1,-1,-1,-1,-1,-1],"split_conditions":[1E0,4.789041E0,-2.129333E-1,1E0,3E0,5.452055E-1,1E0,1E0,1E0,1E0,5E-1,4.526027E0,-1.094412E-1,1E0,1.77012E5,9.59726E0,1.0183561E1,2.3683827E-2,3E0,1.1780822E0,1E0,1E0,-1.1859316E-1,6.120548E0,7.7452054E0,5.8465753E0,2.295E5,1E0,4.7958087E-2,1.602E5,1.5075E5,-2.0225786E-1,-2.3006989E-2,9.506849E-1,1.5232877E0,2.385E5,2.2136986E0,3.015E5,1.602E5,2.205E5,6.4931507E0,-1.5964155E-1,9.09E4,4.0837176E-2,2.1605082E-1,7.1671233E0,1.5126027E1,-1.8079102E-1,-4.2259026E-2,5E-1,2.205E5,1.189589E1,3E0,1.395E5,1.444078E-1,1E0,2.1780822E0,1.6932864E-1,-3.0514149E-2,-1.1969557E-1,-1.2532311E-2,1E0,-1.1560689E-2,1E0,2.4975E5,1.9833413E-1,-2.2256432E-2,-1.5883563E-1,1E0,-4.912265E-2,7.457629E-2,1.4469476E-1,9.276712E0,2.4975E5,-2.0590043E-2,1E0,1.314E5,1.976354E-1,1E0,-2.876675E-2,1.2291367E-1,1E0,1.189589E1,-7.730707E-2,4.090133E-2,-1.6774194E-1,-3.831674E-2,5.9311893E-2,-4.9423076E-2,1.698225E-1,-2.240568E-2,2.2416761E-2,1.8077525E-1,-7.672461E-2,1.3200489E-1,1.2424459E-1,5.5272593E-3,-1.5745264E-1,5.7343394E-2,4.5369796E-2,1.8129508E-1,1.3751885E-1,-1.07585385E-1,2.101776E-3,-1.6707228E-1,1.567387E-1,-1.3211891E-2,-1.1022755E-1,8.656507E-2,-2.2226477E-1,-4.4778284E-2],"split_indices":[11,10,0,40,12,10,44,1,19,17,11,10,0,15,3,10,10,0,12,10,26,14,0,10,10,10,3,17,0,3,3,0,0,10,10,3,10,3,3,3,10,0,3,0,0,10,10,0,0,11,3,10,4,3,0,33,10,0,0,0,0,21,0,21,3,0,0,0,17,0,0,0,10,3,0,40,3,0,1,0,0,1,10,0,0,0,0,0,0,0,0,0,0,0,0,0,0,0,0,0,0,0,0,0,0,0,0,0,0,0,0],"split_type":[0,0,0,0,0,0,0,0,0,0,0,0,0,0,0,0,0,0,0,0,0,0,0,0,0,0,0,0,0,0,0,0,0,0,0,0,0,0,0,0,0,0,0,0,0,0,0,0,0,0,0,0,0,0,0,0,0,0,0,0,0,0,0,0,0,0,0,0,0,0,0,0,0,0,0,0,0,0,0,0,0,0,0,0,0,0,0,0,0,0,0,0,0,0,0,0,0,0,0,0,0,0,0,0,0,0,0,0,0,0,0],"sum_hessian":[2.0218556E2,2.0077452E2,1.4110385E0,1.1271586E2,8.805866E1,6.663006E1,4.60858E1,5.606165E1,3.1997013E1,7.9145474E0,5.871551E1,4.3409023E1,2.6767752E0,3.627687E1,1.9784779E1,5.1061163E0,2.6890896E1,1.9825802E0,5.9319673E0,5.0764046E1,7.9514647E0,4.231119E1,1.0978311E0,3.0607283E1,5.669588E0,5.595793E0,1.4188987E1,4.0219073E0,1.0842087E0,1.5575952E1,1.1314944E1,4.3862085E0,1.5457587E0,7.43631E0,4.3327736E1,5.674569E0,2.2768955E0,7.7965903E0,3.4514603E1,4.7591805E0,2.5848103E1,2.2145138E0,3.455074E0,1.0489901E0,4.5468025E0,7.688109E0,6.5008774E0,2.463757E0,1.5581505E0,7.6113067E0,7.964645E0,3.0021334E0,8.312811E0,5.206135E0,2.2301748E0,5.769185E0,3.755855E1,4.176814E0,1.4977547E0,1.0766419E0,1.2002536E0,6.189747E0,1.606843E0,2.2738762E1,1.1775841E1,2.9287405E0,1.8304402E0,2.0566416E0,2.3791462E1,1.0540185E0,2.4010556E0,1.2792041E0,6.408905E0,5.1764636E0,1.3244137E0,3.862463E0,3.7488434E0,2.6239998E0,5.3406453E0,1.0567623E0,1.9453712E0,4.3266044E0,3.986207E0,2.3211083E0,2.8850265E0,4.4082804E0,1.3609043E0,6.1376786E0,3.1420874E1,5.0140915E0,1.1756555E0,2.0949453E1,1.789308E0,9.986317E0,1.7895243E0,6.2402782E0,1.7551184E1,3.3652928E0,3.043612E0,1.0417559E0,4.134708E0,2.5170665E0,1.3453968E0,1.3273296E0,2.4215138E0,1.3432522E0,3.9973931E0,2.0631027E0,2.2635016E0,2.3818572E0,1.6043497E0],"tree_param":{"num_deleted":"0","num_feature":"48","num_nodes":"111","size_leaf_vector":"1"}},{"base_weights":[9.204719E-3,-6.059706E-3,1.1076345E-1,-1.6347358E-2,1.2876533E-1,-1.0608614E-1,4.19934E-2,-6.9332704E-2,-5.315462E-1,-2.3579516E-2,2.0804039E-1,-4.0309373E-1,-4.2038966E-2,-4.2549666E-2,-1.3165392E-1,3.82724E-2,-5.3282714E-1,1.4710486E-1,1.6637543E-1,-6.382036E-4,-5.802686E-1,3.078722E-1,-6.741567E-2,1.4176074E-2,1.2271807E-1,1.5879532E-2,-6.649518E-1,9.011108E-2,1.5641136E-1,-1.2402996E-2,-1.5516858E-1,-3.4252476E-2,1.301005E-1,-9.676446E-2,2.418033E-1,1.22838795E-1,-9.577815E-3,-7.283217E-1,-2.5472492E-2,1.5454511E-1,-4.2895415E-1,-6.1252367E-2,-7.85997E-3,-4.983066E-2,9.661423E-2,8.764453E-3,-5.620984E-2,-1.7350508E-1,-5.0278362E-2,4.170883E-3,1.4912494E-1,-3.6701123E-4,-1.2614821E-1],"categories":[],"categories_nodes":[],"categories_segments":[],"categories_sizes":[],"default_left":[0,0,0,0,0,0,0,0,0,0,0,0,0,0,0,0,0,0,0,0,0,0,0,0,0,0,0,0,0,0,0,0,0,0,0,0,0,0,0,0,0,0,0,0,0,0,0,0,0,0,0,0,0],"id":9,"left_children":[1,3,-1,5,-1,7,9,11,13,15,17,19,21,-1,-1,23,25,27,-1,-1,29,31,33,35,-1,-1,37,39,-1,-1,-1,-1,-1,41,43,-1,45,47,-1,49,51,-1,-1,-1,-1,-1,-1,-1,-1,-1,-1,-1,-1],"loss_changes":[1.6675103E0,1.3190278E0,0E0,1.0182382E0,0E0,1.160543E0,1.2904193E0,6.356205E-1,9.98795E-2,2.7146747E0,1.1521043E0,3.7358153E-1,6.1867464E-1,0E0,0E0,1.0616297E0,8.0758786E-1,1.0787994E0,0E0,0E0,3.2350338E-1,8.883835E-1,6.0061234E-1,1.0766524E0,0E0,0E0,1.7232966E-1,1.07877E0,0E0,0E0,0E0,0E0,0E0,6.9588894E-1,8.072951E-1,0E0,1.0742049E0,2.2997928E-1,0E0,2.1705678E0,3.0978423E-1,0E0,0E0,0E0,0E0,0E0,0E0,0E0,0E0,0E0,0E0,0E0,0E0],"parents":[2147483647,0,0,1,1,3,3,5,5,6,6,7,7,8,8,9,9,10,10,11,11,12,12,15,15,16,16,17,17,20,20,21,21,22,22,23,23,26,26,27,27,33,33,34,34,36,36,37,37,39,39,40,40],"right_children":[2,4,-1,6,-1,8,10,12,14,16,18,20,22,-1,-1,24,26,28,-1,-1,30,32,34,36,-1,-1,38,40,-1,-1,-1,-1,-1,42,44,-1,46,48,-1,50,52,-1,-1,-1,-1,-1,-1,-1,-1,-1,-1,-1,-1],"split_conditions":[1E0,1E0,1.1076345E-1,1E0,1.2876533E-1,1E0,5.3E1,2.7E1,6E1,5.1E1,1E0,1E0,2.9E1,-4.2549666E-2,-1.3165392E-1,5E1,1E0,1E0,1.6637543E-1,-6.382036E-4,2.6E1,1E0,1E0,2.7E1,1.2271807E-1,1.5879532E-2,1E0,1E0,1.5641136E-1,-1.2402996E-2,-1.5516858E-1,-3.4252476E-2,1.301005E-1,3.3E1,3.6E1,1.22838795E-1,1E0,5.2E1,-2.5472492E-2,6.4E1,5.9E1,-6.1252367E-2,-7.85997E-3,-4.983066E-2,9.661423E-2,8.764453E-3,-5.620984E-2,-1.7350508E-1,-5.0278362E-2,4.170883E-3,1.4912494E-1,-3.6701123E-4,-1.2614821E-1],"split_indices":[34,24,0,2,0,22,8,8,8,8,13,5,8,0,0,8,19,5,0,0,8,19,18,8,0,0,31,20,0,0,0,0,0,8,8,0,21,8,0,8,8,0,0,0,0,0,0,0,0,0,0,0,0],"split_type":[0,0,0,0,0,0,0,0,0,0,0,0,0,0,0,0,0,0,0,0,0,0,0,0,0,0,0,0,0,0,0,0,0,0,0,0,0,0,0,0,0,0,0,0,0,0,0,0,0,0,0,0,0],"sum_hessian":[1.991822E2,1.9471364E2,4.4685693E0,1.9263902E2,2.0746155E0,7.557398E1,1.1706503E2,7.063512E1,4.9388676E0,8.4538345E1,3.2526688E1,4.298783E0,6.6336334E1,2.166769E0,2.7720985E0,7.620725E1,8.331093E0,3.0758085E1,1.7686015E0,1.6323668E0,2.6664162E0,3.732873E0,6.260346E1,7.412719E1,2.0800655E0,1.5496348E0,6.7814584E0,2.9272484E1,1.4856026E0,1.0913998E0,1.5750164E0,1.764937E0,1.9679359E0,5.7804176E1,4.7992797E0,1.8762774E0,7.2250916E1,5.7489886E0,1.0324697E0,2.6664726E1,2.6077564E0,1.1510617E1,4.629356E1,1.5705925E0,3.228687E0,6.1075554E1,1.117536E1,3.816167E0,1.9328216E0,2.2590483E1,4.0742455E0,1.16048E0,1.4472762E0],"tree_param":{"num_deleted":"0","num_feature":"48","num_nodes":"53","size_leaf_vector":"1"}},{"base_weights":[9.338222E-3,-1.4120016E-2,3.0323222E-1,-2.7371695E-2,4.628508E-1,6.6493946E-1,-2.0942874E-1,-3.7268966E-2,1.1611711E-1,1.3272883E-1,1.5246189E-1,-5.217732E-2,8.4420514E-1,-5.778964E-1,1.5385914E-1,-5.336475E-1,-2.6815334E-2,7.742145E-2,-4.1460987E-2,2.2630619E-1,1.1735151E-1,-3.727531E-2,-1.4485095E-1,1.2296277E-1,-1.1542405E-1,-1.456459E-1,-1.5571526E-2,2.317365E-1,-4.664214E-2,1.4477292E-1,-1.0200466E-1,5.64346E-1,1.5067764E-2,-6.1071713E-2,3.3038235E-1,1.5961818E-1,-2.0720229E-2,-4.00487E-1,2.3645768E-1,-8.24935E-2,3.2475218E-1,1.5255079E-1,-1.8256575E-1,-1.2468876E-1,-5.772089E-3,7.2579436E-2,-1.541436E-2,-6.8387814E-2,-1.0756865E-2,-9.6054666E-2,1.03482485E-1,-8.973914E-2,2.5820924E-2],"categories":[],"categories_nodes":[],"categories_segments":[],"categories_sizes":[],"default_left":[0,0,0,0,0,0,0,0,0,0,0,0,0,0,0,0,0,0,0,0,0,0,0,0,0,0,0,0,0,0,0,0,0,0,0,0,0,0,0,0,0,0,0,0,0,0,0,0,0,0,0,0,0],"id":10,"left_children":[1,3,5,7,9,11,13,15,-1,17,-1,-1,19,21,23,25,27,-1,-1,-1,29,-1,-1,-1,-1,-1,-1,31,33,-1,-1,35,37,39,41,-1,-1,43,45,47,49,-1,51,-1,-1,-1,-1,-1,-1,-1,-1,-1,-1],"loss_changes":[1.3758341E0,1.183205E0,2.8743973E0,1.1115181E0,3.992319E-1,1.695334E0,1.0074928E0,9.153864E-1,0E0,3.9324132E-1,0E0,0E0,1.4715695E0,7.228327E-2,1.7852166E0,2.6635063E-1,9.1572446E-1,0E0,0E0,0E0,1.6218727E0,0E0,0E0,0E0,0E0,0E0,0E0,9.096284E-1,9.1666E-1,0E0,0E0,8.6302507E-1,8.9896685E-1,1.3455203E0,1.5210233E0,0E0,0E0,2.6453346E-1,2.7899602E-1,1.113477E0,1.5816197E0,0E0,3.6121422E-1,0E0,0E0,0E0,0E0,0E0,0E0,0E0,0E0,0E0,0E0],"parents":[2147483647,0,0,1,1,2,2,3,3,4,4,5,5,6,6,7,7,9,9,12,12,13,13,14,14,15,15,16,16,20,20,27,27,28,28,31,31,32,32,33,33,34,34,37,37,38,38,39,39,40,40,42,42],"right_children":[2,4,6,8,10,12,14,16,-1,18,-1,-1,20,22,24,26,28,-1,-1,-1,30,-1,-1,-1,-1,-1,-1,32,34,-1,-1,36,38,40,42,-1,-1,44,46,48,50,-1,52,-1,-1,-1,-1,-1,-1,-1,-1,-1,-1],"split_conditions":[3.2625E5,1E0,3E0,1E0,1.602E5,2.9E1,3.5E1,1E0,1.1611711E-1,1.1925E5,1.5246189E-1,-5.217732E-2,5.2E1,4E0,4.8E1,4.5E1,8.775E4,7.742145E-2,-4.1460987E-2,2.2630619E-1,1E0,-3.727531E-2,-1.4485095E-1,1.2296277E-1,-1.1542405E-1,-1.456459E-1,-1.5571526E-2,4.9E1,6.4E1,1.4477292E-1,-1.0200466E-1,4E0,1E0,1E0,6.6E1,1.5961818E-1,-2.0720229E-2,1E0,6.3E1,1.1025E5,3.4E1,1.5255079E-1,9.99E4,-1.2468876E-1,-5.772089E-3,7.2579436E-2,-1.541436E-2,-6.8387814E-2,-1.0756865E-2,-9.6054666E-2,1.03482485E-1,-8.973914E-2,2.5820924E-2],"split_indices":[3,34,12,24,3,8,8,4,0,3,0,0,8,12,8,8,3,0,0,0,33,0,0,0,0,0,0,8,8,0,0,12,9,20,8,0,0,17,8,3,8,0,3,0,0,0,0,0,0,0,0,0,0],"split_type":[0,0,0,0,0,0,0,0,0,0,0,0,0,0,0,0,0,0,0,0,0,0,0,0,0,0,0,0,0,0,0,0,0,0,0,0,0,0,0,0,0,0,0,0,0,0,0,0,0,0,0,0,0],"sum_hessian":[1.9794191E2,1.8419191E2,1.3750004E1,1.8012996E2,4.0619373E0,7.8877654E0,5.862238E0,1.7816817E2,1.9618001E0,2.6185205E0,1.4434168E0,1.2056779E0,6.682088E0,2.6170917E0,3.245146E0,2.6425133E0,1.7552565E2,1.4187325E0,1.199788E0,4.3899755E0,2.2921124E0,1.3307253E0,1.2863663E0,2.0876157E0,1.1575304E0,1.4330128E0,1.2095006E0,1.1740137E1,1.6378552E2,1.0872332E0,1.204879E0,3.9980526E0,7.742084E0,1.5855527E2,5.230249E0,2.817308E0,1.1807448E0,2.4098203E0,5.332264E0,1.5095984E2,7.5954304E0,2.5737755E0,2.6564734E0,1.0826674E0,1.327153E0,3.687656E0,1.6446079E0,1.3953273E1,1.3700656E2,1.1784515E0,6.416979E0,1.1957742E0,1.4606993E0],"tree_param":{"num_deleted":"0","num_feature":"48","num_nodes":"53","size_leaf_vector":"1"}},{"base_weights":[9.603339E-3,2.0995714E-2,-1.897543E-1,2.4087552E-3,2.610804E-1,2.0083206E-2,-2.5263256E-1,8.2183367E-1,-1.1415334E-1,3.6204968E-2,-3.269746E-1,-4.372953E-2,-1.3333462E-1,2.0346439E-1,3.5126336E-2,3.960775E-1,-1.0625791E-1,5.6085113E-2,-3.179174E-1,-4.165592E-1,-7.169043E-3,-2.5501952E-1,8.74192E-2,-5.81215E-2,1.4563803E-1,3.233196E-2,3.2430166E-1,-5.638639E-1,8.965167E-2,-1.03082895E-1,-3.0909711E-2,7.227658E-2,-1.18527375E-1,4.8429817E-2,-4.0395597E-1,7.101552E-1,-1.3659123E-1,-2.555745E-1,-1.9030674E-1,1.3223766E-1,-1.588914E-1,4.046899E-2,-1.0991296E-2,1.1831451E-2,-1.187313E-1,-1.3666897E-1,6.9995455E-2,1.9398746E-1,-4.265737E-2,5.2535225E-2,-8.021102E-2,1.0130397E-2,-9.146216E-2],"categories":[],"categories_nodes":[],"categories_segments":[],"categories_sizes":[],"default_left":[0,0,0,0,0,0,0,0,0,0,0,0,0,0,0,0,0,0,0,0,0,0,0,0,0,0,0,0,0,0,0,0,0,0,0,0,0,0,0,0,0,0,0,0,0,0,0,0,0,0,0,0,0],"id":11,"left_children":[1,3,-1,5,7,9,11,13,15,17,19,21,-1,-1,-1,23,-1,25,27,29,-1,31,-1,-1,-1,33,35,37,39,-1,-1,41,-1,43,45,47,49,51,-1,-1,-1,-1,-1,-1,-1,-1,-1,-1,-1,-1,-1,-1,-1],"loss_changes":[2.1830711E0,8.774682E-1,0E0,8.328924E-1,3.0669649E0,9.7795486E-1,1.006659E0,5.523219E-1,2.1990395E0,1.185801E0,1.8757439E-1,1.0288309E0,0E0,0E0,0E0,1.3007307E0,0E0,9.957243E-1,9.495702E-1,7.169354E-2,0E0,8.0580425E-1,0E0,0E0,0E0,1.0463562E0,2.3623147E0,4.416945E-1,2.6668046E0,0E0,0E0,8.38897E-2,0E0,1.0124393E0,1.3575336E0,1.908876E0,8.0682796E-1,3.048238E-1,0E0,0E0,0E0,0E0,0E0,0E0,0E0,0E0,0E0,0E0,0E0,0E0,0E0,0E0,0E0],"parents":[2147483647,0,0,1,1,3,3,4,4,5,5,6,6,7,7,8,8,9,9,10,10,11,11,15,15,17,17,18,18,19,19,21,21,25,25,26,26,27,27,28,28,31,31,33,33,34,34,35,35,36,36,37,37],"right_children":[2,4,-1,6,8,10,12,14,16,18,20,22,-1,-1,-1,24,-1,26,28,30,-1,32,-1,-1,-1,34,36,38,40,-1,-1,42,-1,44,46,48,50,52,-1,-1,-1,-1,-1,-1,-1,-1,-1,-1,-1,-1,-1,-1,-1],"split_conditions":[1E0,3.2625E5,-1.897543E-1,1E0,1E0,1E0,2.1375E5,1E0,3E0,3.06E5,1E0,1.395E5,-1.3333462E-1,2.0346439E-1,3.5126336E-2,1E0,-1.0625791E-1,1E0,1E0,1E0,-7.169043E-3,1.1925E5,8.74192E-2,-5.81215E-2,1.4563803E-1,6E-1,1E0,1E0,1E0,-1.03082895E-1,-3.0909711E-2,9.45E4,-1.18527375E-1,1E0,1E0,2.475E5,1E0,1E0,-1.9030674E-1,1.3223766E-1,-1.588914E-1,4.046899E-2,-1.0991296E-2,1.1831451E-2,-1.187313E-1,-1.3666897E-1,6.9995455E-2,1.9398746E-1,-4.265737E-2,5.2535225E-2,-8.021102E-2,1.0130397E-2,-9.146216E-2],"split_indices":[11,3,0,22,0,23,3,33,12,3,1,3,0,0,0,19,0,7,17,17,0,3,0,0,0,11,1,33,29,0,0,3,0,45,1,3,0,0,0,0,0,0,0,0,0,0,0,0,0,0,0,0,0],"split_type":[0,0,0,0,0,0,0,0,0,0,0,0,0,0,0,0,0,0,0,0,0,0,0,0,0,0,0,0,0,0,0,0,0,0,0,0,0,0,0,0,0,0,0,0,0,0,0,0,0,0,0,0,0],"sum_hessian":[1.9712404E2,1.9577492E2,1.3491192E0,1.8264488E2,1.313003E1,1.7166939E2,1.09754925E1,4.7866373E0,8.343392E0,1.649048E2,6.764588E0,8.029731E0,2.945762E0,3.2339864E0,1.5526507E0,3.7756243E0,4.567768E0,1.5693616E2,7.968648E0,4.8433747E0,1.9212133E0,5.904658E0,2.1250727E0,1.2715356E0,2.5040886E0,1.4519801E2,1.1738137E1,4.7305374E0,3.2381103E0,2.8143744E0,2.029E0,3.3972175E0,2.50744E0,1.408886E2,4.3094177E0,6.094814E0,5.6433234E0,3.5593047E0,1.1712327E0,2.1198583E0,1.118252E0,1.3879691E0,2.0092483E0,1.3946638E2,1.42222E0,3.2125528E0,1.0968649E0,4.7173753E0,1.3774387E0,2.2512772E0,3.3920462E0,1.7110019E0,1.8483028E0],"tree_param":{"num_deleted":"0","num_feature":"48","num_nodes":"53","size_leaf_vector":"1"}},{"base_weights":[5.315469E-3,-5.679275E-2,1.2917754E-1,-1.0419568E-1,8.319692E-2,6.6985704E-2,4.5330608E-1,-7.6849155E-2,-4.859827E-1,1.5589787E-1,-4.5947602E-1,3.1710044E-2,1.2047906E-1,5.981189E-1,-3.7193336E-2,-1.9280511E-1,-7.1679186E-3,5.9672218E-2,-7.0722723E-1,-7.574889E-2,5.1384073E-1,6.454119E-3,-1.3084096E-1,8.2220204E-2,-3.628927E-1,7.844271E-1,-1.4611128E-3,-2.7324203E-1,2.815795E-1,1.22611836E-1,-2.4140377E-1,-1.671317E-1,-5.5524834E-2,-3.722017E-1,3.6876318E-1,1.9636434E-1,1.4972387E-1,2.3157753E-1,-1.8112011E-1,-5.921588E-1,6.718637E-2,1.9460812E-1,4.5176927E-2,8.0138646E-2,-3.2443184E-1,6.6508585E-1,-7.9819664E-2,5.4062586E-2,1.8025996E-1,1.2403039E-1,-4.5640558E-1,1.4407206E-1,-5.6685495E-1,5.6802815E-1,-9.0439975E-2,-2.79727E-1,1.4557432E-1,2.8653207E-1,-3.717558E-1,4.9993634E-1,-3.71804E-1,-2.981238E-1,-1.5879561E-1,-4.7104153E-1,-4.1425608E-2,-6.271399E-3,1.8900488E-1,-8.777473E-3,1.3256936E-1,1.1717713E-1,-5.0380565E-2,-1.6552913E-1,-8.9738816E-1,1.2613912E-1,-1.0569713E-1,-7.150713E-1,-1.2705979E-1,1.751655E-1,4.8561737E-2,1.998397E-1,-6.90514E-1,3.8734713E-1,2.9910346E-2,-1.0312499E-1,-1.0108675E-2,-1.958444E-2,1.660245E-1,1.9231526E-2,-4.2344537E-1,4.079141E-2,-1.6386408E-1,-1.7995536E-1,-5.038559E-2,7.69979E-2,-3.361471E-2,-6.309123E-2,1.8283317E-2,-1.1923019E-1,2.8151676E-2,6.0169708E-2,-9.90985E-2,-2.0971334E-1,-6.8341084E-2,-1.55431675E-2,-1.685706E-1,-1.4658053E-1,9.263894E-2,6.819209E-2,-3.995972E-2,1.4834115E-1,-9.806729E-2,-1.7183737E-1,-3.7905227E-2,4.128419E-2,1.2983583E-1,-8.796803E-2,5.6444664E-2,-9.7598E-2,9.44035E-3],"categories":[],"categories_nodes":[],"categories_segments":[],"categories_sizes":[],"default_left":[0,0,0,0,0,0,0,0,0,0,0,0,0,0,0,0,0,0,0,0,0,0,0,0,0,0,0,0,0,0,0,0,0,0,0,0,0,0,0,0,0,0,0,0,0,0,0,0,0,0,0,0,0,0,0,0,0,0,0,0,0,0,0,0,0,0,0,0,0,0,0,0,0,0,0,0,0,0,0,0,0,0,0,0,0,0,0,0,0,0,0,0,0,0,0,0,0,0,0,0,0,0,0,0,0,0,0,0,0,0,0,0,0,0,0,0,0,0,0],"id":12,"left_children":[1,3,5,7,9,11,13,15,17,19,21,23,-1,25,-1,27,29,-1,31,33,35,-1,-1,37,39,41,-1,43,45,47,49,-1,-1,51,53,-1,55,57,59,61,-1,-1,-1,-1,63,65,-1,67,-1,69,71,73,75,77,-1,79,-1,81,83,85,87,89,-1,91,93,-1,-1,95,-1,-1,97,99,101,-1,-1,103,105,-1,107,109,111,113,115,-1,-1,-1,-1,-1,117,-1,-1,-1,-1,-1,-1,-1,-1,-1,-1,-1,-1,-1,-1,-1,-1,-1,-1,-1,-1,-1,-1,-1,-1,-1,-1,-1,-1,-1,-1],"loss_changes":[1.520172E0,8.8243914E-1,1.299707E0,9.942707E-1,1.4076644E0,1.0486357E0,1.0785177E0,7.5322294E-1,1.3244852E0,2.5769897E0,4.2847002E-1,1.108014E0,0E0,9.9338126E-1,0E0,1.4131317E0,1.8345407E0,0E0,6.0509443E-2,2.7009728E0,1.9242036E0,0E0,0E0,1.9601976E0,1.212005E0,4.8655415E-1,0E0,1.1804147E0,1.7192498E0,2.0260725E0,1.7462598E0,0E0,0E0,1.3045759E0,1.6123745E0,0E0,2.1938736E0,1.1529019E0,2.550958E0,6.731236E-2,0E0,0E0,0E0,0E0,1.1775653E0,7.9724205E-1,0E0,1.4131995E0,0E0,7.345293E-1,1.6155899E0,1.6847352E0,4.983945E-1,1.0944436E0,0E0,1.1864018E0,0E0,7.51349E-1,1.15805715E-1,9.518628E-1,3.9841366E-1,1.1317773E0,0E0,1.549674E0,6.556314E-1,0E0,0E0,1.0838112E0,0E0,0E0,8.42711E-1,1.6130221E0,8.1896305E-2,0E0,0E0,4.6754003E-1,1.5891739E0,0E0,3.3714145E-1,1.572E0,9.835625E-2,8.649986E-1,1.2384039E0,0E0,0E0,0E0,0E0,0E0,4.3360424E-1,0E0,0E0,0E0,0E0,0E0,0E0,0E0,0E0,0E0,0E0,0E0,0E0,0E0,0E0,0E0,0E0,0E0,0E0,0E0,0E0,0E0,0E0,0E0,0E0,0E0,0E0,0E0,0E0,0E0,0E0],"parents":[2147483647,0,0,1,1,2,2,3,3,4,4,5,5,6,6,7,7,8,8,9,9,10,10,11,11,13,13,15,15,16,16,18,18,19,19,20,20,23,23,24,24,25,25,27,27,28,28,29,29,30,30,33,33,34,34,36,36,37,37,38,38,39,39,44,44,45,45,47,47,49,49,50,50,51,51,52,52,53,53,55,55,57,57,58,58,59,59,60,60,61,61,63,63,64,64,67,67,70,70,71,71,72,72,75,75,76,76,78,78,79,79,80,80,81,81,82,82,88,88],"right_children":[2,4,6,8,10,12,14,16,18,20,22,24,-1,26,-1,28,30,-1,32,34,36,-1,-1,38,40,42,-1,44,46,48,50,-1,-1,52,54,-1,56,58,60,62,-1,-1,-1,-1,64,66,-1,68,-1,70,72,74,76,78,-1,80,-1,82,84,86,88,90,-1,92,94,-1,-1,96,-1,-1,98,100,102,-1,-1,104,106,-1,108,110,112,114,116,-1,-1,-1,-1,-1,118,-1,-1,-1,-1,-1,-1,-1,-1,-1,-1,-1,-1,-1,-1,-1,-1,-1,-1,-1,-1,-1,-1,-1,-1,-1,-1,-1,-1,-1,-1],"split_conditions":[6.4931507E0,3E0,5.2E1,6.052055E0,1E0,2.3145205E1,3.0117807E1,1E0,3.5E1,2.8027396E0,2.8027396E0,5E1,1.2047906E-1,1E0,-3.7193336E-2,1E0,1E0,5.9672218E-2,4.2E1,4.5E1,4.4657536E0,6.454119E-3,-1.3084096E-1,3E0,1E0,3E0,-1.4611128E-3,2.7E1,5.8E1,1E0,1.5808219E0,-1.671317E-1,-5.5524834E-2,1.1780822E0,1E0,1.9636434E-1,5.367123E0,5E0,8.019178E0,1.3372602E1,6.718637E-2,1.9460812E-1,4.5176927E-2,8.0138646E-2,5.6E1,3.9E1,-7.9819664E-2,4.789041E0,1.8025996E-1,4.1E1,4.9E1,3.8E1,3E0,1E0,-9.0439975E-2,4E1,1.4557432E-1,1E0,3.5E1,3.1E1,3.2E1,1E0,-1.5879561E-1,7.561644E-1,5.9E1,-6.271399E-3,1.8900488E-1,3.5E1,1.3256936E-1,1.1717713E-1,4.6E1,3E0,5.3E1,1.2613912E-1,-1.0569713E-1,1.5808219E0,1.3753425E0,1.751655E-1,5.4E1,1E0,4.2E1,3E0,8.438356E0,-1.0312499E-1,-1.0108675E-2,-1.958444E-2,1.660245E-1,1.9231526E-2,1.5824657E1,4.079141E-2,-1.6386408E-1,-1.7995536E-1,-5.038559E-2,7.69979E-2,-3.361471E-2,-6.309123E-2,1.8283317E-2,-1.1923019E-1,2.8151676E-2,6.0169708E-2,-9.90985E-2,-2.0971334E-1,-6.8341084E-2,-1.55431675E-2,-1.685706E-1,-1.4658053E-1,9.263894E-2,6.819209E-2,-3.995972E-2,1.4834115E-1,-9.806729E-2,-1.7183737E-1,-3.7905227E-2,4.128419E-2,1.2983583E-1,-8.796803E-2,5.6444664E-2,-9.7598E-2,9.44035E-3],"split_indices":[10,4,8,10,23,10,10,19,8,10,10,8,0,31,0,20,6,0,8,8,10,0,0,4,6,4,0,8,8,37,10,0,0,10,20,0,10,12,10,10,0,0,0,0,8,8,0,10,0,8,8,8,12,1,0,8,0,31,8,8,8,29,0,10,8,0,0,8,0,0,8,12,8,0,0,10,10,0,8,21,8,12,10,0,0,0,0,0,10,0,0,0,0,0,0,0,0,0,0,0,0,0,0,0,0,0,0,0,0,0,0,0,0,0,0,0,0,0,0],"split_type":[0,0,0,0,0,0,0,0,0,0,0,0,0,0,0,0,0,0,0,0,0,0,0,0,0,0,0,0,0,0,0,0,0,0,0,0,0,0,0,0,0,0,0,0,0,0,0,0,0,0,0,0,0,0,0,0,0,0,0,0,0,0,0,0,0,0,0,0,0,0,0,0,0,0,0,0,0,0,0,0,0,0,0,0,0,0,0,0,0,0,0,0,0,0,0,0,0,0,0,0,0,0,0,0,0,0,0,0,0,0,0,0,0,0,0,0,0,0,0],"sum_hessian":[1.9565471E2,1.3067284E2,6.4981865E1,9.7808784E1,3.2864056E1,5.553316E1,9.448705E0,9.239223E1,5.416555E0,2.9609982E1,3.2540755E0,5.3094254E1,2.4389086E0,7.756109E0,1.6925952E0,3.4017326E1,5.83749E1,1.1150355E0,4.3015194E0,1.8454998E1,1.1154983E1,1.1597215E0,2.094354E0,4.7771072E1,5.3231816E0,5.7048745E0,2.051235E0,2.9448095E1,4.5692286E0,3.7869583E1,2.050532E1,2.5838742E0,1.7176453E0,1.1168922E1,7.286075E0,4.138952E0,7.0160313E0,3.0559448E1,1.7211622E1,4.123127E0,1.2000546E0,3.7099571E0,1.9949172E0,1.5968814E0,2.7851215E1,2.9372404E0,1.6319883E0,3.5788486E1,2.0810947E0,7.7521935E0,1.2753125E1,3.1292217E0,8.039701E0,6.1109214E0,1.1751539E0,4.3218827E0,2.6941483E0,2.8489565E1,2.069883E0,3.4101055E0,1.38015175E1,2.686413E0,1.436714E0,1.7909094E1,9.942121E0,1.0967317E0,1.8405086E0,3.333333E1,2.4551587E0,1.4783008E0,6.273893E0,8.51314E0,4.239986E0,1.85169E0,1.2775316E0,5.5450363E0,2.4946651E0,3.4064717E0,2.7044497E0,2.2309341E0,2.0909486E0,2.008835E1,8.401214E0,1.0115638E0,1.0583192E0,1.4635434E0,1.946562E0,1.2860072E0,1.2515511E1,1.6783218E0,1.0080913E0,5.0065117E0,1.2902582E1,1.8095725E0,8.132548E0,7.679402E0,2.5653927E1,1.0777082E0,5.1961846E0,3.5639744E0,4.949165E0,2.6358821E0,1.604104E0,1.194624E0,4.3504124E0,1.1118152E0,1.3828499E0,1.0708612E0,1.6335883E0,1.2079197E0,1.0230145E0,1.0293881E0,1.0615605E0,1.2937143E1,7.1512074E0,2.6759531E0,5.7252607E0,1.0973723E1,1.541787E0],"tree_param":{"num_deleted":"0","num_feature":"48","num_nodes":"119","size_leaf_vector":"1"}},{"base_weights":[5.603824E-3,1.5681356E-2,-1.7119311E-1,-3.5361137E-2,1.17745414E-1,-1.3516426E-1,3.1524427E-2,1.492279E-1,-3.766496E-1,-2.0905797E-1,1.0840575E-1,-1.3082121E-1,5.757393E-2,6.1275834E-1,1.0758129E-1,-1.436818E-1,3.407831E-2,-1.0559581E-1,-4.4426122E-1,1.5877847E-1,-1.3735878E-1,7.727114E-2,-9.241924E-2,-1.5497777E-2,1.7548013E-1,4.8163894E-1,5.636028E-2,-1.9720432E-1,1.272969E-1,-2.9264578E-1,-1.5897879E-1,-1.3758218E-1,8.308187E-2,6.6953837E-3,3.2977834E-1,1.582623E-1,-3.533594E-2,-8.605291E-2,2.6272777E-1,-5.758098E-1,-8.3770856E-2,1.055635E-1,-1.0891513E-2,9.2098966E-2,-4.388089E-1,-2.22088E-1,1.3621095E-1,7.1057156E-2,-3.5434872E-1,-3.5137765E-2,6.4255583E-1,7.381E-2,-9.510533E-2,2.0947626E-2,-5.740914E-1,1.4518645E-1,1.556964E-1,-1.4893048E-1,6.7347725E-4,1.2963387E-2,-1.1179458E-1,-7.065534E-2,4.0659454E-2,-1.3252994E-1,-5.682003E-2,3.2049816E-2,-8.381788E-2,2.2937866E-2,-1.0623926E-1,-1.4500032E-1,4.891644E-2,1.3166249E-1,-4.388725E-2,1.7370611E-1,-5.84197E-2,-4.076259E-2,3.8102087E-2,-2.1359876E-2,-1.7106713E-1,-1.18573025E-1,5.0854333E-2],"categories":[],"categories_nodes":[],"categories_segments":[],"categories_sizes":[],"default_left":[0,0,0,0,0,0,0,0,0,0,0,0,0,0,0,0,0,0,0,0,0,0,0,0,0,0,0,0,0,0,0,0,0,0,0,0,0,0,0,0,0,0,0,0,0,0,0,0,0,0,0,0,0,0,0,0,0,0,0,0,0,0,0,0,0,0,0,0,0,0,0,0,0,0,0,0,0,0,0,0,0],"id":13,"left_children":[1,3,-1,5,7,9,11,13,15,17,19,-1,21,23,25,-1,-1,27,29,-1,31,33,-1,-1,-1,35,37,39,41,43,-1,-1,45,47,49,-1,51,53,55,57,59,-1,61,-1,63,65,-1,67,69,71,73,-1,-1,75,77,-1,79,-1,-1,-1,-1,-1,-1,-1,-1,-1,-1,-1,-1,-1,-1,-1,-1,-1,-1,-1,-1,-1,-1,-1,-1],"loss_changes":[1.6950011E0,1.0065821E0,0E0,8.6564356E-1,1.0582498E0,9.579836E-1,1.4320402E0,1.1163032E0,8.960201E-1,9.316478E-1,2.2577846E0,0E0,8.150066E-1,9.513242E-1,1.0727165E0,0E0,0E0,6.489267E-1,4.0388584E-1,0E0,1.300045E0,1.3202672E0,0E0,0E0,0E0,1.1136192E0,1.539804E0,8.6984485E-1,4.962468E-1,1.2964365E0,0E0,0E0,1.6485606E0,1.3966382E0,1.8704536E0,0E0,7.9810077E-1,1.6464293E0,9.442439E-1,4.677931E-1,1.2803149E0,0E0,6.268683E-1,0E0,1.1779249E-1,5.331509E-1,0E0,1.3990583E0,2.1966755E0,1.2205889E0,2.1059062E0,0E0,0E0,1.0539124E0,6.529366E-1,0E0,1.5229346E0,0E0,0E0,0E0,0E0,0E0,0E0,0E0,0E0,0E0,0E0,0E0,0E0,0E0,0E0,0E0,0E0,0E0,0E0,0E0,0E0,0E0,0E0,0E0,0E0],"parents":[2147483647,0,0,1,1,3,3,4,4,5,5,6,6,7,7,8,8,9,9,10,10,12,12,13,13,14,14,17,17,18,18,20,20,21,21,25,25,26,26,27,27,28,28,29,29,32,32,33,33,34,34,36,36,37,37,38,38,39,39,40,40,42,42,44,44,45,45,47,47,48,48,49,49,50,50,53,53,54,54,56,56],"right_children":[2,4,-1,6,8,10,12,14,16,18,20,-1,22,24,26,-1,-1,28,30,-1,32,34,-1,-1,-1,36,38,40,42,44,-1,-1,46,48,50,-1,52,54,56,58,60,-1,62,-1,64,66,-1,68,70,72,74,-1,-1,76,78,-1,80,-1,-1,-1,-1,-1,-1,-1,-1,-1,-1,-1,-1,-1,-1,-1,-1,-1,-1,-1,-1,-1,-1,-1,-1],"split_conditions":[1E0,6.4931507E0,-1.7119311E-1,1E0,6E-1,3E0,1E0,7.10137E0,3.4E1,5.5E1,1.1780822E0,-1.3082121E-1,6.263014E0,3.1E1,3.3E1,-1.436818E-1,3.407831E-2,4.2E1,2E-1,1.5877847E-1,1.6164384E0,3.9561644E0,-9.241924E-2,-1.5497777E-2,1.7548013E-1,9.79178E0,1.2383562E1,6.2739724E-1,7.561644E-1,5.8E1,-1.5897879E-1,-1.3758218E-1,3.3333334E-1,1E0,1E0,1.582623E-1,3E0,1.17260275E1,1.3372602E1,3E0,4E1,1.055635E-1,1.6164384E0,9.2098966E-2,5.9E1,1E0,1.3621095E-1,3.7780821E0,1.6821917E0,4.5863013E0,4E0,7.381E-2,-9.510533E-2,8.479452E0,3E0,1.4518645E-1,1.3736986E1,-1.4893048E-1,6.7347725E-4,1.2963387E-2,-1.1179458E-1,-7.065534E-2,4.0659454E-2,-1.3252994E-1,-5.682003E-2,3.2049816E-2,-8.381788E-2,2.2937866E-2,-1.0623926E-1,-1.4500032E-1,4.891644E-2,1.3166249E-1,-4.388725E-2,1.7370611E-1,-5.84197E-2,-4.076259E-2,3.8102087E-2,-2.1359876E-2,-1.7106713E-1,-1.18573025E-1,5.0854333E-2],"split_indices":[11,10,0,2,11,4,4,10,8,8,10,0,10,8,8,0,0,8,10,0,10,10,0,0,0,10,10,10,10,8,0,0,11,31,17,0,4,10,10,12,8,0,10,0,8,17,0,10,10,10,12,0,0,10,12,0,10,0,0,0,0,0,0,0,0,0,0,0,0,0,0,0,0,0,0,0,0,0,0,0,0],"split_type":[0,0,0,0,0,0,0,0,0,0,0,0,0,0,0,0,0,0,0,0,0,0,0,0,0,0,0,0,0,0,0,0,0,0,0,0,0,0,0,0,0,0,0,0,0,0,0,0,0,0,0,0,0,0,0,0,0,0,0,0,0,0,0,0,0,0,0,0,0,0,0,0,0,0,0,0,0,0,0,0,0],"sum_hessian":[1.9267459E2,1.9141743E2,1.2571566E0,1.2803856E2,6.3378872E1,5.0967182E1,7.707138E1,6.024096E1,3.137912E0,3.9212635E1,1.1754547E1,1.9385318E0,7.513285E1,3.8357253E0,5.6405235E1,1.7385219E0,1.3993901E0,2.8239489E1,1.0973146E1,2.513525E0,9.241022E0,7.320928E1,1.9235667E0,1.2590448E0,2.5766804E0,5.781421E0,5.0623814E1,2.0377302E1,7.862186E0,8.941442E0,2.0317044E0,2.0358515E0,7.2051706E0,5.801938E1,1.51899E1,3.2837613E0,2.49766E0,3.0298191E1,2.0325623E1,3.758019E0,1.6619284E1,1.2935258E0,6.5686603E0,1.1037173E0,7.8377247E0,5.1867566E0,2.0184143E0,4.992301E1,8.09637E0,7.420313E0,7.7695875E0,1.3860048E0,1.111655E0,2.5634914E1,4.663277E0,2.7297087E0,1.7595913E1,2.6885433E0,1.0694757E0,1.3318433E1,3.3008516E0,2.2779458E0,4.2907143E0,1.8613772E0,5.9763474E0,1.8271711E0,3.3595853E0,4.7305386E1,2.6176233E0,4.8712606E0,3.2251086E0,1.0179889E0,6.402324E0,6.3138194E0,1.4557681E0,1.09363985E1,1.4698516E1,2.270516E0,2.3927612E0,1.4640276E0,1.6131886E1],"tree_param":{"num_deleted":"0","num_feature":"48","num_nodes":"81","size_leaf_vector":"1"}},{"base_weights":[2.1231521E-3,-8.715555E-3,4.189736E-1,-2.5838552E-2,2.2393155E-1,1.0051192E-1,1.4256911E-1,-3.385886E-2,9.746223E-2,4.0158963E-1,-3.944691E-1,6.8572424E-2,-4.010111E-2,-7.705176E-2,3.853271E-2,-5.1188957E-2,6.053285E-1,-1.24222934E-1,8.580162E-3,6.129481E-1,-1.1247459E-1,-1.5978012E-2,3.9635167E-1,8.8238484E-1,1.0199954E-1,1.3806112E-1,1.8646784E-1,-5.2748185E-1,-7.3666126E-2,3.769145E-2,-7.922804E-1,6.87923E-1,-1.04512006E-1,1.9443507E-1,5.145055E-2,9.0862446E-2,-6.1807115E-2,6.4917795E-2,-1.7110448E-2,-6.42397E-1,-8.859307E-3,-1.1158699E-1,3.6348766E-1,-2.4790682E-2,4.209482E-1,-1.3036624E-2,-2.167617E-1,-2.8035361E-2,2.0615795E-1,3.987449E-2,-8.54205E-2,-1.5214583E-1,-1.2158094E-2,-2.9264614E-2,6.0264565E-2,-3.0952264E-2,1.1336471E-1,2.1182539E-2,-3.406645E-2,1.0892189E-2,1.7947336E-1],"categories":[],"categories_nodes":[],"categories_segments":[],"categories_sizes":[],"default_left":[0,0,0,0,0,0,0,0,0,0,0,0,0,0,0,0,0,0,0,0,0,0,0,0,0,0,0,0,0,0,0,0,0,0,0,0,0,0,0,0,0,0,0,0,0,0,0,0,0,0,0,0,0,0,0,0,0,0,0,0,0],"id":14,"left_children":[1,3,5,7,9,11,-1,13,-1,15,17,-1,-1,19,21,-1,23,-1,-1,25,27,29,31,33,35,37,-1,39,41,43,45,47,49,-1,-1,-1,-1,-1,-1,51,-1,53,55,57,59,-1,-1,-1,-1,-1,-1,-1,-1,-1,-1,-1,-1,-1,-1,-1,-1],"loss_changes":[8.6643976E-1,7.511282E-1,3.8316667E-1,7.374398E-1,1.5789795E0,3.2381967E-1,0E0,5.451908E-1,0E0,1.5669373E0,3.6270368E-1,0E0,0E0,2.7316792E0,1.2832998E0,0E0,1.073564E0,0E0,0E0,7.016628E-1,1.6436737E0,2.4369822E0,1.3415228E0,4.4644833E-2,7.331196E-1,1.6855359E-1,0E0,4.585731E-1,1.6435168E0,1.32735E0,7.308912E-1,1.7421231E0,4.8383707E-1,0E0,0E0,0E0,0E0,0E0,0E0,4.363389E-1,0E0,1.3312613E0,9.258249E-1,9.3549234E-1,1.3068076E0,0E0,0E0,0E0,0E0,0E0,0E0,0E0,0E0,0E0,0E0,0E0,0E0,0E0,0E0,0E0,0E0],"parents":[2147483647,0,0,1,1,2,2,3,3,4,4,5,5,7,7,9,9,10,10,13,13,14,14,16,16,19,19,20,20,21,21,22,22,23,23,24,24,25,25,27,27,28,28,29,29,30,30,31,31,32,32,39,39,41,41,42,42,43,43,44,44],"right_children":[2,4,6,8,10,12,-1,14,-1,16,18,-1,-1,20,22,-1,24,-1,-1,26,28,30,32,34,36,38,-1,40,42,44,46,48,50,-1,-1,-1,-1,-1,-1,52,-1,54,56,58,60,-1,-1,-1,-1,-1,-1,-1,-1,-1,-1,-1,-1,-1,-1,-1,-1],"split_conditions":[1E0,3.2625E5,1.602E5,1E0,4E0,1.1925E5,1.4256911E-1,1E0,9.746223E-2,3.1E1,3.5E1,6.8572424E-2,-4.010111E-2,2.8E1,5.5E1,-5.1188957E-2,1E0,-1.24222934E-1,8.580162E-3,1E0,3E1,1E0,1E0,5.2E1,4.9E1,1E0,1.8646784E-1,1E0,1E0,1E0,2E0,1E0,6.2E1,1.9443507E-1,5.145055E-2,9.0862446E-2,-6.1807115E-2,6.4917795E-2,-1.7110448E-2,1E0,-8.859307E-3,4E0,3.5E1,1.903995E5,3.9E1,-1.3036624E-2,-2.167617E-1,-2.8035361E-2,2.0615795E-1,3.987449E-2,-8.54205E-2,-1.5214583E-1,-1.2158094E-2,-2.9264614E-2,6.0264565E-2,-3.0952264E-2,1.1336471E-1,2.1182539E-2,-3.406645E-2,1.0892189E-2,1.7947336E-1],"split_indices":[34,3,3,24,12,3,0,1,0,8,8,0,0,8,8,0,6,0,0,19,8,14,6,8,8,2,0,13,37,40,4,19,8,0,0,0,0,0,0,31,0,12,8,3,8,0,0,0,0,0,0,0,0,0,0,0,0,0,0,0,0],"split_type":[0,0,0,0,0,0,0,0,0,0,0,0,0,0,0,0,0,0,0,0,0,0,0,0,0,0,0,0,0,0,0,0,0,0,0,0,0,0,0,0,0,0,0,0,0,0,0,0,0,0,0,0,0,0,0,0,0,0,0,0,0],"sum_hessian":[1.8996175E2,1.8610193E2,3.8598244E0,1.7417169E2,1.1930227E1,2.496479E0,1.3633453E0,1.72411E2,1.7606925E0,9.540089E0,2.3901377E0,1.3060019E0,1.1904771E0,1.07942215E2,6.446879E1,2.1961453E0,7.3439436E0,1.2976047E0,1.0925331E0,4.474761E0,1.0346745E2,5.677495E1,7.693842E0,4.250931E0,3.093013E0,2.3753028E0,2.0994582E0,7.7713013E0,9.569615E1,5.3993565E1,2.7813838E0,4.6268864E0,3.0669558E0,3.2316084E0,1.0193223E0,1.6087815E0,1.4842315E0,1.0488434E0,1.3264595E0,6.011979E0,1.7593223E0,8.87429E1,6.953252E0,4.722914E1,6.764425E0,1.1462139E0,1.6351699E0,1.5278791E0,3.0990071E0,1.775951E0,1.2910048E0,4.7396774E0,1.2723017E0,8.2452225E1,6.290673E0,2.026678E0,4.9265738E0,2.5026455E1,2.2202684E1,4.4531393E0,2.3112855E0],"tree_param":{"num_deleted":"0","num_feature":"48","num_nodes":"61","size_leaf_vector":"1"}},{"base_weights":[5.884709E-3,-3.721206E-3,3.8357213E-1,-1.8074585E-2,1.9730039E-1,8.963833E-2,1.3364017E-1,-3.7511086E-1,-1.0110564E-2,3.613451E-1,-3.494752E-1,6.215749E-2,-3.5277817E-2,-1.1420017E-1,8.8100735E-4,2.0194773E-1,-2.656096E-2,-2.215691E-1,5.502871E-1,-1.1011084E-1,7.683456E-3,5.233629E-1,-4.7505437E-3,-3.878875E-2,2.9507634E-1,-1.299232E-2,-5.433349E-2,1.831011E-1,1.6526039E-1,1.519476E-1,-2.9673263E-2,2.8323928E-1,-3.658675E-1,-5.654098E-2,2.789641E-1,1.3546921E-1,-1.3840766E-1,-2.5105956E-1,1.4791249E-1,-2.6939562E-1,1.8541571E-1,8.980195E-3,-1.15346394E-1,-7.698775E-2,1.6596161E-1,5.741909E-1,-2.4951366E-1,2.8888917E-2,-7.755884E-2,5.5008527E-2,-1.2363374E-1,-7.435859E-3,-7.4037716E-2,1.2895835E-2,-2.2735437E-2,7.058391E-2,-9.702999E-2,-2.6371717E-4,1.6408373E-1,6.9968455E-2,-1.4023161E-1],"categories":[],"categories_nodes":[],"categories_segments":[],"categories_sizes":[],"default_left":[0,0,0,0,0,0,0,0,0,0,0,0,0,0,0,0,0,0,0,0,0,0,0,0,0,0,0,0,0,0,0,0,0,0,0,0,0,0,0,0,0,0,0,0,0,0,0,0,0,0,0,0,0,0,0,0,0,0,0,0,0],"id":15,"left_children":[1,3,5,7,9,11,-1,13,15,17,19,-1,-1,-1,-1,21,23,25,27,-1,-1,29,31,33,35,-1,-1,-1,37,-1,-1,39,41,43,45,-1,47,49,-1,51,-1,-1,-1,53,55,57,59,-1,-1,-1,-1,-1,-1,-1,-1,-1,-1,-1,-1,-1,-1],"loss_changes":[6.90507E-1,5.408497E-1,3.3502442E-1,4.9300793E-1,1.246916E0,2.5938857E-1,0E0,2.8386813E-1,6.051436E-1,1.2345372E0,2.856921E-1,0E0,0E0,0E0,0E0,8.3252114E-1,6.424405E-1,7.347256E-3,9.6187663E-1,0E0,0E0,8.905715E-1,9.974734E-1,8.9262354E-1,1.0867159E0,0E0,0E0,0E0,1.3988088E0,0E0,0E0,2.1516168E0,3.9398384E-1,6.863415E-1,1.4528365E0,0E0,3.1266338E-1,8.8233054E-1,0E0,7.169506E-2,0E0,0E0,0E0,7.1465194E-1,1.726592E0,8.071226E-1,1.2483428E0,0E0,0E0,0E0,0E0,0E0,0E0,0E0,0E0,0E0,0E0,0E0,0E0,0E0,0E0],"parents":[2147483647,0,0,1,1,2,2,3,3,4,4,5,5,7,7,8,8,9,9,10,10,15,15,16,16,17,17,18,18,21,21,22,22,23,23,24,24,28,28,31,31,32,32,33,33,34,34,36,36,37,37,39,39,43,43,44,44,45,45,46,46],"right_children":[2,4,6,8,10,12,-1,14,16,18,20,-1,-1,-1,-1,22,24,26,28,-1,-1,30,32,34,36,-1,-1,-1,38,-1,-1,40,42,44,46,-1,48,50,-1,52,-1,-1,-1,54,56,58,60,-1,-1,-1,-1,-1,-1,-1,-1,-1,-1,-1,-1,-1,-1],"split_conditions":[1E0,3.2625E5,1.602E5,1E0,4E0,1.1925E5,1.3364017E-1,4.5E1,9E4,3.1E1,3.5E1,6.215749E-2,-3.5277817E-2,-1.1420017E-1,8.8100735E-4,4.9E1,6.4E1,3.87E5,4.05E5,-1.1011084E-1,7.683456E-3,1E0,1E0,1E0,6.6E1,-1.299232E-2,-5.433349E-2,1.831011E-1,4.59E5,1.519476E-1,-2.9673263E-2,5.8E1,6E1,1E0,1E0,1.3546921E-1,2E0,4.9E1,1.4791249E-1,5.4E1,1.8541571E-1,8.980195E-3,-1.15346394E-1,3.3E1,2.65581E5,3.9E1,3E0,2.8888917E-2,-7.755884E-2,5.5008527E-2,-1.2363374E-1,-7.435859E-3,-7.4037716E-2,1.2895835E-2,-2.2735437E-2,7.058391E-2,-9.702999E-2,-2.6371717E-4,1.6408373E-1,6.9968455E-2,-1.4023161E-1],"split_indices":[34,3,3,4,12,3,0,8,3,8,8,0,0,0,0,8,8,3,3,0,0,37,6,20,8,0,0,0,3,0,0,8,8,37,6,0,4,8,0,8,0,0,0,8,3,8,4,0,0,0,0,0,0,0,0,0,0,0,0,0,0],"split_type":[0,0,0,0,0,0,0,0,0,0,0,0,0,0,0,0,0,0,0,0,0,0,0,0,0,0,0,0,0,0,0,0,0,0,0,0,0,0,0,0,0,0,0,0,0,0,0,0,0,0,0,0,0,0,0,0,0,0,0,0,0],"sum_hessian":[1.8893202E2,1.852116E2,3.7204325E0,1.7371785E2,1.1493747E1,2.4771895E0,1.2432431E0,2.784507E0,1.7093333E2,9.102062E0,2.3916848E0,1.2608166E0,1.2163728E0,1.5037731E0,1.2807338E0,1.1493759E1,1.5943958E2,2.185815E0,6.916247E0,1.2989675E0,1.0927173E0,3.8989267E0,7.5948324E0,1.5444731E2,4.992271E0,1.0864023E0,1.0994128E0,2.842353E0,4.073894E0,2.7871401E0,1.1117866E0,4.3452024E0,3.2496297E0,1.4705376E2,7.3935466E0,2.353906E0,2.638365E0,2.688097E0,1.3857968E0,2.6511695E0,1.6940331E0,1.3692888E0,1.8803409E0,1.3527658E2,1.1777185E1,4.6881027E0,2.7054439E0,1.4334067E0,1.2049584E0,1.2078794E0,1.4802176E0,1.2167572E0,1.4344122E0,2.770281E1,1.0757376E2,9.505719E0,2.271466E0,1.7027948E0,2.9853077E0,1.2594675E0,1.4459764E0],"tree_param":{"num_deleted":"0","num_feature":"48","num_nodes":"61","size_leaf_vector":"1"}},{"base_weights":[7.57491E-3,1.662564E-2,-1.560514E-1,-1.1433249E-1,4.087359E-2,-1.9518359E-1,3.5133666E-1,2.9738703E-1,2.3257036E-2,-5.7509005E-2,-3.6012363E-1,1.2772791E-1,-1.5168364E-2,-1.7120759E-1,5.263775E-1,3.948008E-2,-1.7300195E-1,-2.2271949E-1,3.6872965E-1,-1.3776699E-1,-6.986867E-1,5.3670533E-2,-1.1486324E-1,6.898495E-1,3.3429285E-4,2.8956566E-2,1.3668446E-1,-2.5285906E-1,6.1376866E-2,8.7769434E-2,-4.227043E-1,1.3471326E-1,-7.338594E-2,-3.261654E-1,1.6481322E-1,-1.6440123E-1,-4.954737E-2,1.8451099E-1,3.9250933E-2,1.0179864E-2,2.9207587E-1,-4.9874288E-1,-7.964076E-2,3.3193865E-1,-8.8111594E-2,-1.1028452E-1,-1.1474933E-2,-3.0685866E-3,-9.4621636E-2,-9.803321E-2,1.1812476E-1,-2.9032027E-2,1.0882134E-1,-9.533487E-2,5.20843E-1,3.2738302E-2,-1.7453282E-1,5.015659E-2,-2.2163801E-1,1.03128545E-1,1.3948453E-2,-2.2894634E-2,2.6550466E-2,8.957802E-3,1.1339643E-1,1.5293096E-1,-4.6999898E-2,-9.6968494E-2,4.990961E-3],"categories":[],"categories_nodes":[],"categories_segments":[],"categories_sizes":[],"default_left":[0,0,0,0,0,0,0,0,0,0,0,0,0,0,0,0,0,0,0,0,0,0,0,0,0,0,0,0,0,0,0,0,0,0,0,0,0,0,0,0,0,0,0,0,0,0,0,0,0,0,0,0,0,0,0,0,0,0,0,0,0,0,0,0,0,0,0,0,0],"id":16,"left_children":[1,3,-1,5,7,9,11,13,15,17,19,-1,-1,21,23,25,27,29,31,33,35,-1,-1,37,-1,39,-1,41,-1,43,45,-1,-1,47,49,-1,-1,-1,-1,51,53,55,57,59,-1,-1,-1,-1,-1,-1,-1,61,63,-1,65,-1,-1,-1,67,-1,-1,-1,-1,-1,-1,-1,-1,-1,-1],"loss_changes":[1.3613541E0,6.0144866E-1,0E0,1.1839255E0,7.1298206E-1,5.67078E-1,6.301364E-1,1.179565E0,4.8491454E-1,1.1594248E0,7.759701E-1,0E0,0E0,8.783648E-1,6.048908E-1,9.255759E-1,5.2406293E-1,7.603934E-1,1.2899191E0,5.2341706E-1,3.8116693E-2,0E0,0E0,4.3744612E-1,0E0,6.8033326E-1,0E0,4.090413E-1,0E0,8.417522E-1,3.0961978E-1,0E0,0E0,2.3997504E-1,1.3564883E0,0E0,0E0,0E0,0E0,5.064935E-1,1.8620632E0,1.1744487E0,4.0145507E-1,1.6911599E-1,0E0,0E0,0E0,0E0,0E0,0E0,0E0,1.3132454E0,1.066701E0,0E0,1.5709789E0,0E0,0E0,0E0,3.8119498E-1,0E0,0E0,0E0,0E0,0E0,0E0,0E0,0E0,0E0,0E0],"parents":[2147483647,0,0,1,1,3,3,4,4,5,5,6,6,7,7,8,8,9,9,10,10,13,13,14,14,15,15,16,16,17,17,18,18,19,19,20,20,23,23,25,25,27,27,29,29,30,30,33,33,34,34,39,39,40,40,41,41,42,42,43,43,51,51,52,52,54,54,58,58],"right_children":[2,4,-1,6,8,10,12,14,16,18,20,-1,-1,22,24,26,28,30,32,34,36,-1,-1,38,-1,40,-1,42,-1,44,46,-1,-1,48,50,-1,-1,-1,-1,52,54,56,58,60,-1,-1,-1,-1,-1,-1,-1,62,64,-1,66,-1,-1,-1,68,-1,-1,-1,-1,-1,-1,-1,-1,-1,-1],"split_conditions":[1E0,3.1E1,-1.560514E-1,1E0,3.3E1,2.9E1,1E0,1E0,1E0,1E0,1E0,1.2772791E-1,-1.5168364E-2,1E0,1E0,1E0,3E0,2E0,5E-1,2E0,3E1,5.3670533E-2,-1.1486324E-1,1E0,3.3429285E-4,1E0,1.3668446E-1,5.5E1,6.1376866E-2,1E0,1E0,1.3471326E-1,-7.338594E-2,3E1,1E0,-1.6440123E-1,-4.954737E-2,1.8451099E-1,3.9250933E-2,2E0,3.5E1,5.2E1,6E1,1E0,-8.8111594E-2,-1.1028452E-1,-1.1474933E-2,-3.0685866E-3,-9.4621636E-2,-9.803321E-2,1.1812476E-1,1E0,1E0,-9.533487E-2,2E0,3.2738302E-2,-1.7453282E-1,5.015659E-2,6.1E1,1.03128545E-1,1.3948453E-2,-2.2894634E-2,2.6550466E-2,8.957802E-3,1.1339643E-1,1.5293096E-1,-4.6999898E-2,-9.6968494E-2,4.990961E-3],"split_indices":[11,8,0,40,8,8,1,19,22,6,6,0,0,13,31,24,4,4,11,4,8,0,0,6,0,37,0,8,0,47,13,0,0,8,43,0,0,0,0,4,8,8,8,1,0,0,0,0,0,0,0,1,21,0,4,0,0,0,8,0,0,0,0,0,0,0,0,0,0],"split_type":[0,0,0,0,0,0,0,0,0,0,0,0,0,0,0,0,0,0,0,0,0,0,0,0,0,0,0,0,0,0,0,0,0,0,0,0,0,0,0,0,0,0,0,0,0,0,0,0,0,0,0,0,0,0,0,0,0,0,0,0,0,0,0,0,0,0,0,0,0],"sum_hessian":[1.881018E2,1.8693318E2,1.1686194E0,2.862428E1,1.583089E2,2.4884584E1,3.7396953E0,9.152911E0,1.4915599E2,1.4298428E1,1.0586157E1,1.9399476E0,1.7997476E0,3.0873833E0,6.065528E0,1.3850575E2,1.0650244E1,1.0648527E1,3.6499012E0,7.238847E0,3.3473105E0,1.6368314E0,1.450552E0,4.3847313E0,1.6807965E0,1.3730681E2,1.1989447E0,9.536393E0,1.1138505E0,4.3915267E0,6.257E0,2.6402571E0,1.009644E0,4.413118E0,2.825729E0,1.9823675E0,1.3649429E0,2.389261E0,1.9954704E0,1.291305E2,8.176312E0,3.1647496E0,6.371644E0,3.2576876E0,1.1338391E0,4.2501435E0,2.0068564E0,1.7711294E0,2.6419885E0,1.0537382E0,1.7719905E0,9.290475E1,3.622575E1,1.6266028E0,6.54971E0,1.3447089E0,1.8200406E0,1.6848749E0,4.686769E0,1.3471788E0,1.9105089E0,6.098823E1,3.1916513E1,3.2746826E1,3.4789217E0,4.9434457E0,1.6062636E0,1.7996839E0,2.887085E0],"tree_param":{"num_deleted":"0","num_feature":"48","num_nodes":"69","size_leaf_vector":"1"}},{"base_weights":[6.31313E-3,1.3418521E-2,-8.547381E-2,5.824061E-3,8.596867E-2,-3.0579222E-3,3.5176158E-1,-3.1912225E-1,3.8229858E-3,2.5963014E-2,8.925604E-2,-9.733913E-2,1.7537879E-3,-4.45173E-3,2.0662133E-1,-1.8320099E-2,2.5198382E-1,4.147883E-1,-1.0140152E-1,3.1076152E-2,-9.4030626E-2,5.4998446E-1,-2.0676051E-1,1.4288954E-1,1.8404582E-1,1.940262E-2,-3.409266E-2,-4.571131E-2,7.1530335E-4,-3.3153265E-4,1.5676288E-1,3.2380342E-2,-9.659847E-2,-2.1321924E-2,7.693491E-2],"categories":[],"categories_nodes":[],"categories_segments":[],"categories_sizes":[],"default_left":[0,0,0,0,0,0,0,0,0,0,0,0,0,0,0,0,0,0,0,0,0,0,0,0,0,0,0,0,0,0,0,0,0,0,0],"id":17,"left_children":[1,3,-1,5,-1,7,9,11,13,-1,-1,-1,-1,15,17,19,21,23,-1,25,27,29,31,-1,33,-1,-1,-1,-1,-1,-1,-1,-1,-1,-1],"loss_changes":[5.8418375E-1,5.846549E-1,0E0,5.644385E-1,0E0,3.921454E-1,3.8529754E-2,2.1535629E-1,2.977919E-1,0E0,0E0,0E0,0E0,6.1258495E-1,1.2437167E0,6.129403E-1,1.3220334E0,2.7891755E-1,0E0,1.3382926E0,8.497342E-1,7.2769284E-1,5.066664E-1,0E0,3.1510735E-1,0E0,0E0,0E0,0E0,0E0,0E0,0E0,0E0,0E0,0E0],"parents":[2147483647,0,0,1,1,3,3,5,5,6,6,7,7,8,8,13,13,14,14,15,15,16,16,17,17,19,19,20,20,21,21,22,22,24,24],"right_children":[2,4,-1,6,-1,8,10,12,14,-1,-1,-1,-1,16,18,20,22,24,-1,26,28,30,32,-1,34,-1,-1,-1,-1,-1,-1,-1,-1,-1,-1],